encog,BasicNetwork,java,3.4.0,1,1699188918195
[BASIC]
[BASIC:PARAMS]
[BASIC:NETWORK]
beginTraining=0
connectionLimit=0
contextTargetOffset=0,0,0
contextTargetSize=0,0,0
endTraining=2
hasContext=f
inputCount=4
layerCounts=4,6,5
layerFeedCounts=3,5,4
layerContextCount=0,0,0
layerIndex=0,4,10
output=0.0000000113,0.0881836632,0.9190021766,1,0.219522557,0.0276642596,1,0.9857085686,0,1,5.9000000954,3,5.0999999046,1.7999999523,1
outputCount=3
weightIndex=0,18,43
weights=0.8325313545,4.8801532925,0.1574233521,-17.9444003835,114.9907667952,-1.0865465778,0.6325885786,7.4606962357,-2.3420908198,3.1052533206,-110.9164238149,-3.4000629494,0.0652595955,-48.693410431,-0.8467325616,1.7515229026,-176.4253037958,2.8818488302,0.8015023422,0.3970563644,0.1083164901,-3.0526893086,-2.2460573137,1.4106192946,1.1351993021,-1.9999887012,-3.3192506749,0.8867815189,-20.9923134989,5.6104592545,19.348467304,20.1166838567,-2.6596088139,0.2517994042,-2.4319484094,1.6745093194,0.1368880388,1.2575334722,0.0276294535,5.888905871,-5.8292509167,-14.7808732294,-1.5043772996
biasActivation=1,1,1
[BASIC:ACTIVATION]
"org.encog.engine.network.activation.ActivationSigmoid"
"org.encog.engine.network.activation.ActivationSigmoid"
"org.encog.engine.network.activation.ActivationSigmoid"
