encog,BasicNetwork,java,3.4.0,1,1699190392018
[BASIC]
[BASIC:PARAMS]
[BASIC:NETWORK]
beginTraining=0
connectionLimit=0
contextTargetOffset=0,0,0,0
contextTargetSize=0,0,0,0
endTraining=3
hasContext=f
inputCount=784
layerCounts=11,21,21,785
layerFeedCounts=10,20,20,784
layerContextCount=0,0,0,0
layerIndex=0,11,32,53
output=0.0641064753,0.0324727028,0.0500807218,0.0085285769,0.1336502222,0.089418692,0.6566100696,0.0320430265,0.0766556088,0.0632205197,1,0.9999978732,0.0014996387,0.8254474338,0.0946002012,0.8125539154,0.0000001816,0.9285596421,0.9914187106,0.0000378575,0,0.0001386823,0,0.9992654748,0.0039412435,0.0000426897,0.0000000046,0.0210523274,0.987247128,0.9001228277,0.0631854999,1,1,1,0,0,1,1,0,1,1,0,0,1,1,0,1,1,0,0,1,1,1,0,0,0,0,0,0,0,0,0,0,0,0,0,0,0,0,0,0,0,0,0,0,0,0,0,0,0,0,0,0,0,0,0,0,0,0,0,0,0,0,0,0,0,0,0,0,0,0,0,0,0,0,0,0,0,0,0,0,0,0,0,0,0,0,0,0,0,0,0,0,0,0,0,8,117,254,220,89,0,0,0,0,0,0,0,0,0,0,0,0,0,0,0,0,0,0,0,0,0,13,95,212,253,253,253,157,0,0,0,0,0,0,0,0,0,0,0,0,0,0,0,0,0,0,0,16,95,209,253,253,253,245,125,18,0,0,0,0,0,0,0,0,0,0,0,0,0,0,0,0,0,40,96,206,253,254,253,253,198,64,0,0,0,0,0,0,0,0,0,0,0,0,0,0,0,0,0,44,182,240,253,253,253,254,253,198,24,0,0,0,0,0,0,0,0,0,0,0,0,0,0,0,0,0,0,15,60,60,168,253,253,254,200,23,0,0,0,0,0,0,0,0,0,0,0,0,0,0,0,0,0,0,0,0,0,70,247,253,253,245,21,0,0,0,0,0,0,0,0,0,0,0,0,0,0,0,0,0,0,0,0,0,75,207,253,253,207,92,0,0,0,0,0,0,0,0,0,0,0,0,0,0,0,0,0,0,0,0,0,79,219,253,253,253,138,0,0,0,0,0,0,0,0,0,0,0,0,0,0,0,0,0,0,0,0,0,105,250,253,253,253,34,1,0,0,0,0,0,0,0,0,0,0,0,0,0,0,0,0,0,0,0,0,95,254,254,254,254,94,0,0,0,0,0,3,13,13,13,8,0,0,0,0,0,0,0,0,0,0,0,0,107,253,253,253,204,15,0,0,0,0,21,166,253,253,253,212,25,0,0,0,0,0,0,0,0,0,0,33,217,253,253,132,64,0,0,18,43,157,171,253,253,253,253,253,160,2,0,0,0,0,0,0,0,0,3,166,253,253,242,49,17,49,158,210,254,253,253,253,253,253,253,253,253,11,0,0,0,0,0,0,0,0,10,227,253,253,207,15,172,253,253,253,254,247,201,253,210,210,253,253,175,4,0,0,0,0,0,0,0,0,10,228,253,253,224,87,242,253,253,184,60,54,9,60,35,182,253,253,52,0,0,0,0,0,0,0,0,0,13,253,253,253,253,231,253,253,253,93,86,86,86,109,217,253,253,134,5,0,0,0,0,0,0,0,0,0,2,115,253,253,253,253,253,253,253,253,254,253,253,253,253,253,134,5,0,0,0,0,0,0,0,0,0,0,0,3,166,253,253,253,253,253,253,253,254,253,253,253,175,52,5,0,0,0,0,0,0,0,0,0,0,0,0,0,7,35,132,225,253,253,253,195,132,132,132,110,4,0,0,0,0,0,0,0,0,0,0,0,0,0,0,0,0,0,0,0,0,0,0,0,0,0,0,0,0,0,0,0,0,0,0,0,0,0,0,0,0,0,0,0,0,0,0,0,0,0,0,0,0,0,0,0,0,0,0,0,0,0,0,0,0,0,0,0,0,0,0,0,0,0,0,0,0,0,0,0,0,0,0,0,0,0,0,0,0,0,0,0,0,0,0,0,0,0,0,0,0,0,0,0,0,0,0,0,0,0,0,0,0,0,0,0,0,0,0,0,0,0,0,0,0,0,0,0,0,0,0,0,0,0,0,0,0,0,0,0,0,0,0,0,0,0,0,0,0,0,0,0,0,0,0,0,0,0,0,0,0,0,0,0,0,0,0,0,0,0,0,0,0,0,0,0,0,1
outputCount=10
weightIndex=0,210,630,16330
weights=##0
##double#16330
   0.2805435102,-1.2141604309,0.0397880719,-0.8529009882,-1.0311832266,-0.0455977319,-0.6162672039,0.6684637055,0.1243185398,-3.9037807092,0.4361207922,-1.7205875555,-0.2626101024,0.5393311019,-1.2540081937,-5.0991838445,0.1364858325,0.1551236966,-0.6758850688,-0.370911838,-1.4283543963,-0.6107888288,0.7289544888,-0.140773421,0.151893645,0.7399230397,0.689711214,0.1467025688,-0.8403973001,0.5221629481,-0.8409490035,-0.1627086746,4.7485550516,0.3162387345,0.1741929691,1.547628003,0.6393851792,-1.2924420537,-0.2733025537,-0.5825878444,-0.5392235613,-2.0483399878,-0.6041075924,-0.5679597761,0.1381206158,2.0784102811,0.0790870524,-0.6171591679,-0.9410563083,-0.6969798401,-0.2418913563,0.8924223727,-0.0679313407,-0.2079337478,-0.0504837553,0.001646055,-0.0953284206,0.3041499937,0.2678718221,-0.369603073,-0.7278700576,-0.5412660427,-0.0487630871,-0.091204997,0.4061915979,0.6045488031,0.8093291256,-0.2230074697,-0.3132143334,-2.2013079936,-0.0767117291,0.563804105,-0.0338020393,-0.1344279998,-0.7166248152,-0.6608104503,-0.4647614496,-0.6191185764,1.5731140056,0.7592977798,-0.782105897,-0.359000633,0.1892511799,-1.2099389724,-0.1684591738,-0.7329419391,-0.8346564116,-2.7037993794,-0.426418079,0.3284590648,0.848638585,-0.4354463377,-0.9224121885,-3.8016053373,0.4211686531,-1.6459844405,-0.5998819385,0.5471115239,0.123070118,-13.7526501306,-0.3717028764,0.7013009419,-0.0177667182,-0.1829255427,-0.8242993031,-0.5542586441,0.8176383513,0.5205391259,-0.723065952,-0.4634557681,0.7279021141,-0.7815682164,0.503216635,-0.2889704228,-1.0019257351,0.0585285935,-1.5216758729,-0.6497068717,-0.0260704629,0.6681594018,-0.9484570022,-0.2683991495,0.5843141423,0.1668111629,-0.501039625,-1.5659780972,0.4610049183,-0.7622255201,0.2587571199,-0.1930339501,0.2106606727,-1.0979537653,0.1093700253,0.364750921,-0.3925830451,-1.8183252822,-1.2118862784,-0.3092729282,-0.4091904689,-0.5643894415,-1.2285520374,-2.3216146982,-0.835412577,0.7557525778,0.8708607632,-0.7202646372,-1.6968658068,-0.8074625597,0.6397210854,-1.7706647889,-2.0294030077,0.0701686304,-1.927490185,0.5384508469,0.4176736862,-1.3110929087,-0.1727306815,-0.3693897935,-0.9863295349,0.2818219826,-0.3388350763,-1.0584418609,0.190766807,-0.1389163001,-1.2313490182,-0.5761603017,0.8018346026,-0.5127350923,-0.4953269735,-0.5035234722,0.4326016335,-1.2602174997,0.0439064436,0.4744021495,-0.8112704047,0.6599593735,0.6618294948,-4.5078623356,1.2114815328,-1.9298447929,0.4349356525,-0.2612169343,-0.2541402438,-1.372094763,0.2441045367,-0.3332663002,-0.3541542348,-0.1482896986,-1.9488706921,0.0221446171,-0.5959921325,-1.7297005328,-4.6818915099,-0.5234697876,0.6542136862,0.0693173325,0.6293674604,-0.9063466101,-1.0454636822,0.4514240152,-0.6846760265,-0.0620956416,-0.610293074,-0.4840119892,-3.7182267876,0.2665987473,0.2820234399,0.5621241745,0.5011994653,-1.8666106438,5.2500033621,-0.1674223196,1.3605335845,4.3468907545,0.8745996884,0.4946619795,-0.1364586787,0.3700508591,2.4291254055,-0.3637529023,-0.704219054,0.5936513879,0.9598505524,0.6416364187,0.3194679614,0.5602443364,-0.8311638546,-0.607999617,1.2302762045,0.6887121138,-0.5423491232,-0.5260688667,0.9346346258,1.7088313155,8.0005058971,0.058553453,-0.0384450237,-0.2157319015,0.7052117075,-1.9505741656,0.3007910311,2.0524831834,-0.4859584893,0.2359379791,2.0590183082,-4.8020226681,0.8195517951,5.1073503971,0.2543103778,0.1174806294,-0.7684714903,-0.8008597991,0.6687424478,-1.9247172062,-7.8938564801,7.8247094882,0.2215698501,0.7555998599,-1.172733394,0.0185536638,0.0352859632,1.4239913326,-4.052965982,-0.4609665883,-1.059398921,0.7008807998,3.2200574163,0.1257277666,-8.8096457191,-13.8840570625,0.8204429948,-1.2569650478,0.3897674489,0.795091089,0.1141579051,-0.3545946056,0.8650229648,-1.4317246676,-0.6805286764,-0.5291162247,-0.3213227301,-1.5674060256,0.3611910361,-0.9708955419,0.4096114713,-0.5515356865,-0.8657270615,2.2956676783,-0.5790264819,-2.0541818505,-0.7354487778,-0.6575300539,-0.3262922764,0.2421214447,-0.7220513859,1.8222871193,3.5132649985,-2.9231156944,0.2889549934,-0.6301980623,0.4728193205,-0.1973239635,-0.9346531913,0.0693384054,-0.1171469829,-0.6539788248,0.7146362218,1.3960120158,2.3298307652,-0.198066923,0.7351232024,0.5241645071,0.3250493111,-1.3627100883,0.6849150425,0.1181633329,-7.4546784472,3.6886649021,0.8010715951,0.6094681468,-0.0931073469,0.4390409932,-0.3349814311,0.4968055924,1.5429820239,-0.140680066,-0.3110044561,0.5379745856,0.5693804486,-8.9120601741,-0.2928383429,-8.4791924458,-1.7658927604,0.9958202915,0.7954973714,-1.6764387259,-0.5205631161,3.2663833206,3.1144674062,-2.2713843223,-0.2263296237,0.1565723739,1.0627421266,-0.5834599702,1.0290449024,-0.4143287652,1.9157814703,-0.0224333506,0.8580759853,0.4152657116,0.2913117827,-0.2105081997,4.3880465043,2.2545699297,-0.2748980813,0.7681099521,-1.9665343075,-0.5327488394,3.3205085784,0.2087223731,0.3945974682,0.8929553413,0.271693074,-0.0948548119,0.5517186017,1.0091911534,1.1907100516,2.0427105209,0.9602100903,-0.5018949526,0.3812593983,-0.3332957926,0.3067756936,2.9871285047,0.5690477891,0.5699934659,-0.4187170083,-1.3468366284,0.4984023082,-6.3616835664,4.2143992677,3.4016930901,-1.3423725458,-0.6609160177,-0.24004711,-0.563859842,-0.1901345511,-0.5497883065,-4.8951900006,-0.402060679,0.3573288875,0.4940024215,-1.9844437513,0.4655681659,-8.9164269628,-2.7587652399,0.8345269711,-1.1676554139,0.335657686,-3.0966338401,1.7860023787,-1.9703742476,0.0367199899,-3.6069561088,-2.4288875619,-1.0379494242,-1.4958557897,-5.5936125041,1.2115667607,0.0807800282,-1.8184815348,-2.6748062701,-3.2358175591,-0.1545613184,-2.5097560376,1.3234904546,2.068979732,-5.2150608888,-2.1762678282,-2.4456804057,0.7795337387,-6.9608235254,-5.4078003788,-0.9627863155,0.8088909466,0.6071902923,1.1051669045,0.5116950615,0.3105915162,-1.6253849277,-1.65328786,-0.5202803684,-0.7071778504,0.6920003389,-1.6529655855,0.1412062159,-8.4094284945,-0.1124663676,-0.2420904349,-0.0436867362,-1.9152696065,-0.5394050785,-6.4396375769,8.5231530089,-21.9947088672,-5.004019839,-0.7591765898,0.5093377925,-13.3158169086,-0.9911868385,-0.8509401073,-4.302441713,-0.8820135615,0.411067746,0.1586491523,-0.079318149,1.0281399027,-8.2883995157,-13.4956605756,-1.1378810132,-4.6138813673,0.427149727,-0.3003152417,1.7088763186,3.6920562518,-8.9822069085,1.2706661727,2.3842234011,13.9098950964,-0.0782384136,-0.3153554243,-0.7683047543,4.193725451,2.0317023977,1.6728775406,5.9284411848,-0.8869609115,-0.4001298675,3.2678726905,3.4088847344,-1.2276795215,0.1809990214,1.17488604,0.4090981841,-6.9160215462,3.7885714301,-0.6958798766,0.0311190022,0.6750475295,-0.0422548586,0.4452577204,0.3755895596,0.7975187157,-0.7124251538,0.4107127699,0.0570172136,0.1877948736,-0.2034541356,-0.3692430365,-8.2582500141,-0.263753586,0.1488214604,0.2215383969,-0.8177930814,0.0996264929,-6.5828278122,1.22062318,-2.4280175844,-0.8453275173,0.6785424031,-0.0963458733,-1.2681651363,-0.0401106517,0.3036545796,-0.9467548988,-0.344952363,-0.3469164752,2.008941177,-1.704198667,0.4563401712,-7.963205901,-0.3954374534,0.2945890395,-0.7677427835,0.3096341025,-2.0919701897,6.7027926233,0.0370756397,3.6095803093,-2.251484162,-1.1649876795,-0.9009086971,-1.8762385535,-2.7468243735,1.9486325362,2.4240334521,-0.8286068913,-2.5686052239,1.6040645276,-2.7339127952,-2.7280012959,4.2017121969,-2.1212418966,-2.6999415262,-2.3498453039,-1.8701243667,-0.2224257937,-0.5986662716,-8.0217132416,1.8105818214,0.6536858993,0.1463738206,-0.2252526841,-0.0783191268,-0.3448252118,-1.9850665923,0.981180157,-0.4847012596,-0.246381117,-0.8826511685,-0.6714385047,-0.8136703391,0.6370996824,-0.4475847136,0.043338402,0.686022436,-1.9084600069,0.5132689875,-0.278019693,1.8644605797,-0.8390584493,0.9183447633,-0.4849088353,-1.4421770805,0.4120892852,0.8796709949,1.0785648721,-1.8947898172,-0.1590956097,0.8271050159,0.1284334256,1.2314166671,0.6452815052,-3.6308017276,-0.3186151959,0.8698164814,0.4287563826,-1.4545620536,-0.3112652653,0.6822200732,0.4622353142,1.1345077205,-0.4496750403,-0.0620392063,0.5748578484,0.128651526,1.0158477209,0.8404636277,-0.7095876474,0.5883459591,-0.0881353066,0.5061748062,1.0806023303,1.252069282,-2.2708156202,-0.5632174953,-0.4467703746,0.8190027718,-2.0102643945,-0.2804686101,0.7511049627,0.9930864512,9.4986003385,-0.1545451172,0.8489009191,1.3756057755,0.5926411075,0.6814551911,-0.7806279118,0.8636205564,-0.1215539759,0.4091538717,0.6544160401,-5.3070937726,0.2245835986,3.6958108342,3.2627644676,-1.5067161853,0.4640684435,0.70205912,0.0160616211,0.5890461082,1.0493924552,1.1330538331,1.1118516181,0.4978066801,0.6969290494,1.1327844273,0.7538809796,0.8768396841,0.7121656596,1.2674753146,0.6583427021,0.5037860607,0.2843115342,0.6736025961,1.3904765959,1.286140403,0.0645962159,0.0694418813,0.2389910879,1.2965503671,0.2748784757,0.4031560614,1.3318682569,0.1507066325,0.5934090734,1.0314409117,0.5728810685,0.983547049,0.3536720097,0.2275210076,1.1831750361,0.92501055,0.2730521315,0.0671649047,-0.2168263177,0.7543542943,0.1879902419,-0.0723354602,-0.1500935041,0.286711172,0.0681928899,0.1681771418,-0.1895015504,0.5413413919,1.437582546,0.6237848601,1.4711864545,0.4022207006,0.657251887,-0.15098554,0.2286121809,0.3346371501,1.2184982116,1.3975683091,0.556958567,1.226256906,0.8254147979,13.361347936,0.3354175065,0.012148302,1.3513689916,0.3560887694,0.409134529,0.8297720019,0.777544771,0.7866759846,0.6183957037,0.003238755,0.8723237618,0.3130086262,1.572319458,0.9242428786,1.244600724,1.3998138613,1.1214589277,2.1893650126,2.3269784001,2.8183918347,-0.5073538628,0.873773615,0.4647554442,1.01376663,0.8822240815,1.0823515724,-1.945680221,2.2980413609,1.5403089283,2.4325193529,1.490635079,0.763189201,0.3130095897,0.88291676,0.860940652,0.2818307376,0.765404778,0.9536862301,0.9806120105,0.0362066261,0.3379288472,1.23429361,0.4462816598,0.7647775051,0.8062182518,0.9700000951,2.823785341,1.8880136216,2.2575084539,0.9595122648,-1.1944703287,1.2420288623,0.7643347802,0.0890880559,-0.3595555507,-0.1665683534,-0.1270435621,0.9561731288,-0.2378644443,0.1586819143,0.376576236,1.1309799791,1.16853232,1.0702758749,0.5633482746,0.4979270876,0.2543636195,0.9032527515,0.8483500833,0.548379957,0.0041408777,1.108036717,0.6387985274,0.3045496228,0.0349167161,0.2832984279,-6.0074777207,-16.570536477,-38.8871376129,1.6621444745,1.1880434766,1.1308204686,0.6810558839,0.4875083713,0.8073668811,-0.2274186258,-0.3482105488,0.1462759852,-0.0961267815,1.0159813791,-0.0308539233,0.4241089034,1.2167691051,0.0457799584,-0.0217793928,1.2255168845,1.5227178247,1.1304547133,2.2736199341,1.6642764104,1.6329031973,0.8056370731,0.5308225747,0.7915879147,-5.0809730295,-26.1391277075,-38.8724841627,-3.8450880765,0.0515160766,-0.1436953041,-38.499624966,-0.0580137534,0.5767062446,-0.0596548087,0.328762599,-0.4235453357,-0.0858770729,0.0000752596,0.324112929,0.794172483,1.0252908225,0.8013210702,-0.1722929121,0.9295780233,-0.0544181273,0.662082739,1.311733839,1.000396478,2.4168338651,0.9394157019,0.8798320652,-0.5157452657,-6.2582067748,-37.9369468428,-38.7033934593,-38.2478337314,-38.0173224766,-38.6943122727,-37.8519378842,-39.2201302617,-5.5357512692,-5.2047735318,-1.8065943427,-0.6729366049,-0.3502579581,0.9448425279,0.9515274442,-0.2824004053,0.9847309386,0.4905871367,1.031648185,1.0584851497,-0.0351480671,-0.2846062409,0.0155477545,0.0006480948,0.6224436807,1.129189033,0.8962504391,0.1976170426,-38.0281194887,-39.2005939373,-38.8061873017,-38.0098953061,-20.1964144267,-38.2020521653,-39.0925081993,-38.1798710853,-38.8612262842,-12.9923368125,-5.9028654841,-4.6088805698,-4.9405202397,0.0432457361,-0.0765572125,0.6407460739,0.2863856652,-0.6302114174,-0.6937354429,-0.4468169779,0.1808762756,0.4913012818,0.6579962012,0.3280943867,0.9199826706,2.5023748602,1.30367138,0.2799691903,-37.9666574386,-39.1677842905,-38.839820537,-13.6042656132,-38.2988841352,-38.4209971532,-38.333935202,-38.8220978369,-38.2586872218,-38.48892757,-5.212749207,-4.7176406502,-1.6445182072,0.1945783888,-0.5364119116,0.4719070957,-1.1233763835,-0.1790181539,-1.0720455339,-4.9061769304,-4.9339934295,-5.3394804389,-0.2664906303,0.8174222779,1.1473295086,2.0709376387,2.5931421702,2.6212624919,-0.1543447284,-38.5576626851,-38.3846243424,-38.5019634996,-38.958052954,-38.6184352205,-38.4413799345,-39.1287171381,-38.8894708966,-13.2184352824,-5.4511470267,-1.0492010196,0.2125808806,0.6611512604,-0.0270397978,-0.4887047505,0.2043918184,-0.8903569309,-5.8033307192,-5.2992572824,-4.9707275082,-2.0454461223,-0.1647256406,-0.4741643132,2.2932300973,2.5519805761,1.9465190163,1.895427127,2.3867553417,-39.2254658181,-38.9660121127,0.5548462617,-38.8330320962,-38.6652069058,-38.0763972476,-37.9076107005,-38.7278587397,-4.7517078939,-0.5088674321,-0.4877010833,0.6220747112,0.5641915129,1.3414393747,0.1943534863,-0.0617129197,-0.1172054627,-0.0441910666,0.4307773275,-0.7603608758,-0.0051718486,-0.9380843889,0.6015472419,1.5696069651,2.6586707078,1.9177775431,13.4345391261,1.8777266676,0.7564924141,-0.0582211745,-13.9487640493,-38.8526820479,-38.4284133621,-37.9162861446,-38.6437563447,-5.1531499971,0.5730055378,0.5288508053,1.1837561964,1.1989231287,0.3453296844,0.4752587912,1.3633645567,0.9825842543,0.7164082303,0.0053855122,0.0995643903,-0.7642961108,-2.137190317,-2.1942648893,-0.4060591258,1.531429766,1.5578537803,5.2845101275,13.1587823158,13.9692454252,1.3648773458,0.6359293022,-0.804904572,0.2516054074,-26.5776118098,-38.0419894616,-38.3104574011,-1.2758854975,2.0817016495,1.7262072513,1.4449639957,2.2959744148,1.2424929788,0.9824792131,1.1120372174,-0.3024781138,0.7016231984,0.4651916195,-0.6821012355,-0.5758996799,-2.0426455378,-2.1484429371,0.47504156,2.5544878747,1.6506248497,5.6090280906,14.3425527652,14.0076524682,2.0920942512,1.3079349431,0.6965412544,-26.0317801449,-9.5625738205,-39.0111117759,-5.1350192891,1.1039931401,1.695458856,2.2279532114,2.1807498694,2.1086515671,1.4769867493,1.0734863079,0.5988612764,-0.2677625089,0.4723557738,-0.18901937,-0.0227118007,-1.8858142212,-2.5394647647,-1.2218242446,0.3722496325,2.2577305479,1.551308782,5.0021051652,13.9069978888,4.4269908869,2.3931528562,-0.3630505347,0.1310005052,-38.8724171376,0.3621771968,-14.1027468134,-1.3234167881,1.5586778217,2.5092254841,1.2934226479,1.5552154601,2.3834698567,1.5114848184,1.2590193669,1.094922541,-0.2771345283,0.2376839476,-0.4981566295,-0.5240952278,-2.4022967335,-1.2951045973,-0.6320295879,1.0698795248,1.3659099525,1.3500390404,2.4474898009,5.2385603442,4.892256589,5.526125424,-0.2619323751,0.6184080504,-39.1728396031,0.0005092398,-0.1194934276,0.7856621104,5.4111742638,4.3102614771,4.5291939606,1.8336207226,2.6152159974,1.9586400162,1.23200992,0.8572637968,0.251149729,-0.2214884565,0.508120511,-2.1390689484,-2.161903888,-1.185339967,0.2573776945,0.4389639067,2.1949838247,2.4623953116,2.2829172544,5.0421283924,5.2566382691,2.3076893893,-0.0055280286,-0.3530411588,0.4346634306,-1.1816394125,0.8685563416,0.0569509943,4.2677702929,5.385307823,5.5070573458,5.2756762657,1.7325897862,1.3014776323,1.2421155164,1.0179133131,0.5189220073,-0.4754757299,-3.0741774618,-2.9290281961,-1.6658864675,0.0471170156,0.475293997,1.2587575654,1.4205330113,1.852911069,1.3827704967,4.5015976156,4.740881528,0.0677285575,0.9463838561,1.974965223,-5.8659756377,-0.6004741986,-0.1305747372,-0.1831753365,4.8989604012,4.8186611458,4.4187368436,4.3673518208,1.6153532109,1.4375262943,0.8333318405,-0.073396721,-0.3960710311,-1.062259574,-4.617707307,-2.4666505369,0.5368823648,0.4337371936,0.9237654744,0.6720911336,2.1169886604,2.1790234491,4.6689814186,5.1482787695,1.9215346466,0.284884877,-0.1742509735,-0.3570117153,0.1257162159,-4.2813046961,0.8720152108,0.6017230963,5.0141085474,4.8316264145,4.6691669493,4.7848735113,1.9453008347,2.6434484956,0.8973616367,-0.1622145009,-0.1275529632,-2.6669320239,-1.6892272917,-0.2659615521,-0.0037605671,0.7916981358,0.8864705621,0.3945472592,2.5775546094,1.6609069984,5.2753725193,1.7511229846,1.1401514843,0.8972158113,0.8408207425,-0.2473919767,0.9811437308,0.314686665,0.4434873978,1.2083970277,5.5086493984,4.8403489071,5.0258557962,2.5460612915,2.6543161764,2.4453634021,1.3290654056,0.0764686152,0.2875901096,-0.7232298579,-0.0339872935,1.1158617711,1.3951302411,0.7448428972,1.3287831159,0.925809754,2.3797359254,1.5081647769,1.8544746028,0.3734857788,0.8903498034,0.7355525999,-0.0266404724,-38.0872882514,-0.3826263953,-0.1396102681,0.2566814432,0.8047459337,1.9455851342,4.7725314428,2.4932754484,1.4602563399,1.7332947142,1.0139936797,1.1200312724,-0.2452968098,0.8338495943,0.0821732016,0.9796240043,0.729755991,1.1246412312,0.9709549609,1.4641463606,1.5825585871,0.6831062738,0.0749623708,0.7194479052,0.5593562558,0.2498850962,0.3869583922,1.3120771612,13.471824819,-0.3402432464,-0.2379790362,1.1920311507,1.3708334265,1.1028345533,0.0332564307,2.5100732203,1.519522475,0.8378064417,0.1437743957,-0.1068539578,-0.0070980497,0.294471921,0.1530245286,0.9435203137,1.1033957481,-0.1164980689,0.5136679686,1.5776991409,1.3840365501,1.2253965989,0.8297505951,-0.1523230824,0.9973939225,-0.3769046815,0.716939861,0.1478156788,13.267570267,0.4966686239,1.1006042695,0.085044892,-0.2715042689,0.6908270398,-0.2135729231,0.3522378709,-0.2040668267,0.8988137807,0.301930675,0.8757691319,1.0949005781,-0.0357726376,-0.1256222873,0.6559110466,-0.2814469608,0.7196731951,0.7086619893,-0.1296041557,0.4532908838,0.2607199859,0.9083866905,0.8103803706,-0.1489093156,0.7425091147,0.9074205645,-1.464414582,0.9320122776,1.3104419154,0.5785254881,-0.0229826002,0.0039176054,0.1987607289,0.2270408048,-2.1050875759,-5.3612412789,-5.1810432427,-4.7909305564,-4.8332885987,-5.3488916355,-5.1731685731,-5.7829639563,-4.9988226057,-1.9675350668,-1.8975813205,-2.7397342658,-0.2767210683,-0.0510907176,0.1039482307,-0.1264476926,0.2420666219,0.2534194348,0.0179983674,0.7140250577,0.1299452918,0.2520740088,0.8905031631,0.3032601544,0.8576680879,-38.6901343205,-38.3547933545,-38.5989338357,-38.0071423385,-39.06465391,-38.2144080795,-39.218437408,-38.6023161961,-13.2722426757,-13.9452734351,-4.644320761,-5.8768237605,-4.5384945666,-5.3979004935,-5.6462813167,-4.7133016725,-5.2973130339,-1.74736228,-0.5177724955,0.1371648973,-0.0678326517,-5.783945695,-0.3506628432,0.8008652525,0.6649952083,0.1390146315,1.3705993427,1.0320025594,-0.7006453368,-5.0498449179,-38.4197040226,-39.0325676907,-38.0118995451,-38.5019107896,-39.1142311699,-38.9062509085,-38.1078963677,-39.0810059679,-39.1816064289,-39.0979553877,-38.824720381,-38.7329448635,-13.7648793477,-5.2097918252,-4.6387965745,-5.8877332014,-5.7331293591,-4.99437526,-5.2473938677,-0.4163402333,-38.6661046526,0.409708993,0.6062031043,1.0299075666,0.7870178591,1.00868817,1.2728950351,-37.853300168,-38.6557636637,-39.2300133139,-37.9010662923,-38.7975706113,-38.6596692456,-38.5347970827,-37.865632301,-38.8692200157,-37.8863511569,-38.4860365976,-39.1044771814,-39.0334171967,-38.4781192052,-38.892538072,-39.2330776567,-14.3064214881,-13.8539432875,-38.6089283426,-38.8919660805,0.070801249,0.2558636786,0.0080998054,0.9677023606,0.4707989434,0.2788816621,0.4827406724,0.2646520519,0.3276093055,1.0017582371,0.1077299826,1.3216984706,1.3691796429,0.6921517711,1.0020519697,0.9265355912,0.1138274395,6.8755127459,2.0222101198,-12.9419414761,-13.7732668045,0.0701658289,0.2069797191,1.2252441007,0.6316161609,0.2815947324,0.8608311608,1.0054646311,0.0852533095,1.3124915782,1.3980151302,1.0990096254,0.2921892994,0.9448650182,0.0525155461,0.6276694025,1.159114767,4.3947203598,3.3203502636,2.9090454448,2.9513154876,13.6772876501,12.7590784285,13.8823859743,12.7873827057,13.7725702203,13.4095498417,7.1765694625,3.8385738215,4.3201577589,3.8428426192,3.6165356526,7.2511952978,7.5725959046,14.0918352784,13.6843668511,4.0984865816,0.0295644385,0.9996605128,0.4837004262,0.233043816,0.6727016124,0.4946518662,13.662675342,-5.5517348778,13.1993389405,7.0553359388,13.247990041,13.7073075826,13.1667416025,14.0859948546,13.9809662341,13.7093690103,13.1125780432,13.1878729,14.1242818694,13.6838386615,12.8648128711,13.4225462296,12.9853063633,12.5477520239,12.697734907,13.1473345899,12.8063723627,13.7359679807,12.7347471861,13.4002257608,1.2068835535,1.1130123886,0.3335642125,0.5446003763,13.6534809369,6.2715328287,0.461914893,-0.0092075112,0.0187746261,0.7792140368,0.6951615251,0.0687468321,2.567863775,2.6932222602,1.9763181686,1.760372084,1.9276590297,4.4659663253,4.2995347755,13.5434458634,12.4526344255,12.4791312427,13.0455965002,13.0227676649,13.6989562173,12.6316849578,12.6158328698,4.9500436583,12.8648824665,0.8998373977,1.1462597539,-0.6169100789,-13.1697744834,4.0235770976,-0.0587354602,0.2406030449,-0.9916033625,-0.8810681223,-1.0286352496,0.3182246966,-0.8011191619,-1.153288219,-1.2757676556,-1.5660326621,-1.48561925,-0.7023354132,0.0698604609,0.0677942029,-0.2530007461,-0.918804065,-0.5351857782,-1.4186129064,-1.1975281465,-1.0144694913,-0.453822073,0.168063406,-0.1312015183,5.1964923917,0.2032606621,0.8793073921,1.603534922,-0.7814259705,-0.4814277458,-0.3441244781,-0.3216966222,-1.3248195325,-0.6457663994,-0.8124390928,-1.8621308018,-1.5421206129,-1.1253354433,-1.0226535896,-1.7520633965,-0.5846603175,-1.1215942365,-1.0943906002,-2.3336869609,-2.3445937066,-1.9442321887,-1.7475832946,-1.1466241082,-0.5715970229,-1.0818842975,-0.463630051,-1.0834258599,2.1078806316,1.294974918,-0.6685696776,3.6995192864,0.2267144421,-0.672816414,-0.2623419364,0.1889722224,-0.4053356607,-0.02215398,-0.3939492372,-0.5511938276,-0.3757580379,-0.3993871358,-0.639852614,-0.3161923583,-1.5702701468,-0.8944700191,-1.0534425636,-1.9676903593,-2.1803565391,-2.3757006922,-1.6969749482,-0.0768638849,-0.8592565253,-0.1736925722,-0.1033458833,-0.361481193,-0.4516452761,3.7809660632,3.9883119034,4.3037196235,3.8407397064,4.4067157268,0.7278208989,-0.2803996288,0.1522629836,0.3945036783,-0.1579890132,-0.4351034093,-0.9324422419,-0.7947236232,0.3508809341,0.363765399,0.0065854308,0.0118088591,-0.1351511086,-0.7909477774,-1.3748945645,-1.1829315929,-1.3410372074,-0.2534435132,-1.1537919165,-0.6855136948,-0.5316200943,-0.98095753,-0.7832876794,4.5205671957,4.6590319535,3.9621307922,4.4633221161,4.6445316237,4.2326770758,3.8276512965,3.9921094459,1.326630102,-0.2724961029,0.1533598714,-0.1403817233,1.7399561838,0.7811295092,0.2755436857,0.0596977885,0.508300358,-0.1450080444,-0.2663604207,-1.08147045,-0.4231627969,-0.0859448763,-0.0832130483,-0.245452658,-1.344645562,-1.3156639486,-0.2324497781,-1.8883655315,4.0707742262,4.6426688298,3.5245884713,4.728968143,3.7976627773,4.7570881692,3.754327989,1.0816219058,1.4951594458,1.6292779616,1.3684991226,1.6132453993,1.9299928753,1.3047669766,0.2497788786,-0.6540775621,-0.7430843343,-0.0975171952,-0.5370305717,-0.8672529649,-0.2515262439,-0.2434304318,-0.4105275833,-0.6774160175,-0.890916052,-0.6458922453,0.0502432398,0.0184927388,4.5583799163,4.4195042695,3.55927805,3.4535089822,4.7900261371,3.6484502062,0.8035162248,0.9491080641,0.1451436798,0.89059215,-0.0011431353,0.7630393473,1.0158498931,-0.7120299011,-0.7111208697,-0.6253954582,-0.7941829587,0.512446387,-0.3838971057,-0.8715582926,-0.7570642352,-0.7241197899,-0.6627746406,-0.760836536,-1.2826647779,-0.1114324428,-0.6674080433,-0.8991068817,4.6598161921,4.1679448943,4.4168012325,3.8215887284,4.7754373546,1.3394782078,0.9855330497,-0.3088598447,-0.4077894395,-0.4710549488,-0.5598175202,-0.2058826883,-0.2548350904,0.4820709221,-0.55132596,-0.9281749555,0.2681293233,-0.3038889171,-0.5173176437,0.376077729,0.0437819931,-1.0759367639,-1.5023126097,-4.4736684308,-2.4012571628,-0.1938821026,-1.0783965762,-0.3058910207,4.6037659483,3.7274612829,4.4251488565,4.7513501812,4.1615359719,-0.2699557714,-0.5259406839,0.1596482057,-0.3709204985,-1.121237441,0.0512746806,0.2786205108,-0.5562288304,-0.9169865486,-0.2245960167,0.128629278,0.1593641597,-0.4285859126,0.5258025759,0.6407140649,0.0403203164,-0.1839719792,-1.8354883954,-4.2313695053,-4.5055952413,0.4289641824,-1.6129390562,-0.2735032666,-3.7419151871,2.6770152986,4.0534982968,4.5861260721,-0.0935725669,-0.7410472977,-1.3313716365,-0.619143511,-1.3932912955,-1.0074468639,-1.0701332054,-0.22358686,-0.6192220228,-1.5797631716,-0.9184345453,-0.9969977916,0.1619983384,1.323217144,0.930499878,1.1683100707,0.0415578709,-0.5930339299,-0.8026501891,-5.3783193266,-3.2121382577,-0.1579277904,-1.176623705,-13.0179222063,-0.7646607008,2.0608357478,3.4441178772,1.3364879975,-0.950628781,-1.3984060619,-1.1612647498,-0.1424061944,-0.3733232726,-1.2415213859,-1.1987407028,-0.0684149122,-0.9032043817,-1.0446587353,-0.717397374,-0.8194687229,0.6566793183,1.0408123797,0.4177653016,0.591401264,-0.7536751988,0.1343264397,-0.7978100715,-2.6573546287,-2.596636607,1.7428466151,-13.3809464665,-6.891520845,0.2371940799,0.1882426568,4.624575004,-0.6096269156,-2.1422295037,-1.1772010881,-1.2124464999,-0.8500047782,-0.633804058,-0.7671828342,0.2256221086,-0.850255808,-0.1655381827,-0.1976000567,-0.3138762285,-0.9013554559,0.6606580694,0.3117137378,0.6160670853,0.3645528771,-0.744835751,-1.2083762114,-0.2041956562,-0.7671891526,-0.4885129896,1.0132447813,-12.9673483814,-2.7866272758,3.5069467348,0.2817213761,-0.319234684,-1.3577647481,-1.4716125184,-5.5641197939,-1.501751061,-0.7232206204,-0.4877941368,-0.6213968716,-0.2920012017,-0.7797854585,-0.5634885565,-0.6049197374,-0.9677273318,0.1422145081,0.1756139443,0.4442169296,0.1692089817,-0.689123537,-0.9567456676,-0.9083875067,-0.1500934304,-0.7581920175,-1.3760018697,-0.192588536,-13.0401747284,-7.3036276101,0.8483157962,-0.5755372445,-0.3130669742,-1.0221494736,-4.7365266242,-5.2810713952,-1.2926579552,-1.3885121217,-1.3224926884,-0.2819788274,0.1198737171,-0.4156414758,-0.890634167,-0.6555468512,-0.3472741942,-0.3910062593,0.3213756311,-0.3193173236,-0.9073928105,-0.5430643857,-0.9858504251,0.0230947305,-0.9836508719,-0.8404651995,-1.6482173548,-0.8214287884,-7.710150841,-4.148757545,13.631087363,1.3809030919,0.057537451,-1.3214213332,-1.7429089505,-1.7620575435,-1.8383475535,-1.4789535507,-0.8940527205,-0.0598197507,-0.6919751883,0.5060303481,-0.8034258795,0.0575446099,0.1542111971,-0.4467833081,-0.2381764009,-0.6509866537,-0.7808845468,-0.9615686412,-1.0714204259,-0.0293600382,-1.4297449782,-1.2710679244,-1.3916277075,-1.9878356246,-3.636950281,-37.9334499948,-2.8350361666,4.610897593,-0.0997565566,-0.3989978277,-1.602796628,-1.469569541,-1.290369787,-1.72242867,-2.1707725652,0.0684885429,-0.2786418829,0.0134159143,-0.5106422691,-0.7108896907,-0.1168955745,-0.79731066,-0.65531988,-0.5253365066,-0.2154399314,0.1422854785,-0.1600283061,-0.9266952837,-1.2236088405,-2.072467234,-2.7133122289,-4.94325286,-8.0799060663,-38.8725324501,0.0228904966,1.0469621978,0.3452396057,-0.1530050646,-2.1643102105,-1.6239626892,-2.0602509083,-1.2350067264,-1.2106835892,-1.9434210559,-0.1620534656,0.0752374299,-0.6881639852,-0.4179184998,-0.1776920277,-0.2454593515,-0.0159247052,-0.4407662621,-0.6080814562,-0.8491735435,-1.5097139685,-1.0890245651,-1.1763058633,-4.9921305252,-2.6697724601,-0.6159102484,-1.6494309707,-0.6821505208,-8.8599815355,0.0620856824,0.1050739428,-0.7708161633,-1.8168313867,-1.4601307061,-1.1999132801,-1.3652590579,-1.7602513382,-2.3594585555,-1.615490276,-0.8872858499,-0.3029926869,-0.04666523,-0.1505397399,0.0367429566,0.0374975734,-0.2183097814,-0.3312032554,-1.9132780383,-1.0725446822,-1.7146253448,-1.9355294818,-4.5960992183,-3.1737175046,-0.992161782,-3.5416511289,-4.3471036264,-7.9777000893,-0.2348763112,0.1635745057,-0.6323685239,-1.050223243,-1.1676337781,-2.2342662876,-1.989418496,-2.453200765,-1.6368862704,-1.2210226236,-0.795956032,-0.3276884168,-0.2454732752,0.2159887907,-0.5555178409,-0.9063752707
   -0.8516159049,-0.5019305558,-0.6447037933,-2.0697731718,-1.868690642,-1.7598770258,-5.1170333556,-3.3184243129,-3.301473727,-2.3193903404,-4.554077285,1.1986208938,0.4790126932,0.2734483279,-0.2244890896,-0.2139854563,-1.06212936,-0.5972304651,-0.353289795,-0.0830862853,-0.6413197064,-0.0902551334,-0.5064801994,-0.9421884219,-0.6565155854,-0.7309977664,-1.0947848804,-1.0799632217,-1.2589997694,-0.0830962112,-1.0280066907,-1.0074927988,-1.0915196537,-1.4321981017,-1.6095349387,-1.2503385709,-1.4183175125,-13.5144647464,0.3122720392,1.3315850186,1.3353801716,-0.5963570528,-0.4033440823,1.2335186689,1.740459176,0.909843425,1.5623238685,0.5857486954,0.6338878756,0.5292459725,0.7776358665,0.3514111482,0.5896237614,0.3670332112,0.0113258688,-0.1844722173,0.3002619742,-1.1641606393,-0.0626213989,0.0220512557,-0.2758522778,0.634765439,-0.4472584844,0.6069876245,-1.3456812614,-13.64098835,0.907296589,0.6325091914,1.2514741199,0.5542561185,4.5416350925,2.271825185,1.6750416131,2.1053858782,1.068610757,1.3058250448,2.248617651,2.3407067302,1.314496357,1.9685887323,2.1376132193,2.0001156989,1.7925497452,1.5762077728,1.7194675892,1.9386500671,1.6541797914,0.6494664846,1.3704267656,0.2354702253,0.6575743136,2.14694056,-0.2848251619,-12.781753183,0.2364292336,0.0335299305,0.451735162,0.9074249849,0.7255326166,5.2446621643,1.6897426124,1.9321989944,1.8225246828,2.2468087627,1.9844536475,1.757643207,2.175864648,4.6819880396,4.8782952297,4.3714690708,4.9046871566,5.1383087773,2.8760774177,1.2667602001,2.2387100437,1.7193663355,1.9945414482,4.9545677843,1.73996516,2.3217371788,2.3739445583,0.4163906091,1.2660769642,0.1731483176,1.2813269606,1.1531931483,1.1151693016,1.4745367643,1.9753336834,1.5526598313,3.8769659563,4.6502635057,4.3190417679,4.438281672,4.1811804505,3.9938710045,3.9960840234,3.8686653159,3.5013541724,4.1377305238,3.6417012906,3.6970374903,1.6823681048,2.2917610635,4.8961569895,5.3232742013,1.6925255589,0.946075749,0.288752303,0.2011135929,1.0427543061,0.1252125951,0.0460397387,1.3356826853,1.3374956812,0.8030517523,0.992764132,1.2456898575,0.2228660192,1.2688785641,0.7312350727,0.3004712633,0.1352907306,0.827647716,-12.2572552091,-0.6660777661,-0.0514816141,0.865882374,0.17711707,0.4857266431,0.4415956626,0.168199061,1.1168865521,0.0759392409,1.0829111411,1.2988850293,1.3140757938,0.8274410068,1.121819,0.148626769,0.2265640459,0.7805942739,0.5701650727,1.0309145056,-13.2169064527,-12.7697417956,-1.2647478105,-2.2539069997,-0.959608799,-1.4120923977,-4.8866953777,-5.36099038,-5.659181058,-10.7770448573,-4.9462203335,0.0309084683,-3.6821382334,-9.4858022586,-14.125001058,-20.1615583861,-19.6493834925,-14.0337779822,-8.5599382596,-1.6943313296,0.7545184114,0.1884992816,0.0454572538,1.2804925545,0.2010323422,0.6790746259,-5.6596363341,-0.9288395707,-4.8958310723,-5.4780084435,-0.219126207,-0.506128156,-0.4107734927,-0.7305582899,-0.1795800201,-0.6035455233,-0.9343825872,-1.4201805605,-4.3810141017,-5.5916560387,-5.4344460873,-5.4066769832,-13.9721917846,-14.1531554035,-14.1309903342,-14.1856505513,-14.35587174,-14.1883398978,-4.9988028056,-0.5449591342,0.6216806404,1.2084028388,1.094255632,0.8237250481,4.3918716931,-1.9555136707,-5.1613206034,-2.7012284366,-1.6313150474,-1.9015929835,-3.0022996508,-2.5148467517,-0.9997958122,-1.2429422658,-1.5142773087,-3.5928880989,-2.36214983,-2.1385869445,-2.4087277919,-3.1518513663,-3.40541663,-0.6727379088,-0.232790147,-0.2004285853,-1.1223940844,-0.239875835,-1.3455434867,-2.8461211469,-14.1099734594,1.3458973653,1.1283561503,-1.2076145997,12.758264986,-3.0623877823,-1.0971277938,-1.2154884255,-0.8155446583,-1.0031841636,-0.0294327566,-1.0785621898,-0.5401988135,-0.6396047362,0.1317370636,0.0702077014,-0.5928507377,-0.8406302324,-1.1338284785,0.3465127494,1.2206085054,3.9268034798,4.3422693617,1.3256200406,-0.3040933839,-0.716330874,0.2366397564,0.0388962985,-0.8389151095,-13.7787164308,0.1510324728,0.0988390533,2.0218049195,-0.4328335275,-0.4559978805,-0.1335797453,-0.3492134788,-0.837600471,-0.9278469046,-0.6552389608,-0.9468349829,-1.1096158626,-0.3444713127,0.243876494,-0.5194884018,-0.0579819237,-0.212442556,0.1641209057,-0.5346823137,-0.1264930441,-0.3917435977,1.1395556757,-0.6100577042,0.136285106,-0.2081453966,-0.6535977612,-0.0816052801,-5.8178012984,1.0684951669,-1.0784784917,-6.4933177166,-0.8539820622,-0.2242621628,0.0645624141,-0.5484164016,-0.8627706206,-1.2631745211,-0.0221976955,-0.217625058,-0.2403600584,-0.0560928563,-0.7246506602,-0.3980420821,-0.3032259732,0.2948291719,-0.7695553354,-0.2340686646,-0.868531752,-0.4047507727,0.3952847661,-0.3497698102,-0.1236798898,-0.033266412,0.0631924902,-0.4338101784,-0.695034604,-39.19779912,-13.9291210316,-37.9062161946,-14.2395459029,-4.3763588507,-4.409019199,-1.8441149532,-1.4244521394,-1.5320900881,-2.0744090859,-4.5933858636,-4.5393762029,-1.7823118775,-1.1164433883,-1.1236934549,-0.8007508214,-0.3198336001,0.1768034885,0.1681181559,-0.4346767565,-0.5033438497,-0.8959856581,0.204033976,0.0469619539,0.5906803922,0.5850598616,-0.381972791,-0.4506562,-37.9284355821,-38.8412635004,-39.2433923,-39.0856858172,-13.8862915825,-13.05700833,-4.7460039456,-13.9108846932,-13.0056372448,-13.6971420651,-13.8557379637,-13.2835499492,-13.5132440554,-3.0085340261,-1.6675064663,-0.6207855207,-0.4981446856,-0.2307379806,-1.0215233012,-0.2554010826,-1.407328345,-2.0873331371,-1.5504606527,-0.0055521691,-0.1228416465,0.5160301229,-0.288255874,-0.456107404,-38.0546543283,-38.6108830859,-37.933001765,-38.732208206,-38.5260930758,-13.8272225176,-13.731863809,-12.9971216397,-13.3123261167,-13.4200486813,-14.2013568601,-13.5220339704,-8.3058936697,-2.1666559792,-0.7017336414,-0.2151760095,-0.0480828238,-0.4694364837,-1.4077908663,-1.9702560214,-5.112713517,-1.7489200517,-2.3953518714,-1.8503058184,-0.3049389683,-0.5020793966,0.1123936013,-1.3634449038,-39.1220182738,-38.5081577553,-39.0118344143,-38.2610809999,-38.2402380881,-13.8865136942,-14.1780748038,-8.1968075428,-9.3210073195,-6.2176280349,-8.5864621107,-9.0627775888,-3.7207075914,-0.7751707201,1.2319267813,0.5174650357,-0.1553822361,0.078962,-1.4783264372,-4.8093223881,-4.4501345475,-5.0272505295,-4.3032942447,-4.1707871714,-1.6789937396,-0.1679207148,0.1633031838,-0.5316990168,-39.007766591,-39.1437436452,-39.0450517951,-38.9454934495,-38.3121379011,-8.251968358,-9.3555867034,-4.518405145,-4.754000224,-4.1182228936,-4.3403747341,-5.9474005726,-5.6327103797,0.2831317976,0.8132434208,1.0612943014,-0.5665653896,-1.6202675362,-13.4535960187,-14.1613106965,-13.9657227238,-4.8886139957,-4.1318322765,-4.9077994316,-2.2373403017,-0.5511682927,-0.0732999816,2.6901772137,-38.5214673372,-38.2944002722,-38.2791015866,-23.5608248582,-6.7560175696,-4.4671573441,-2.2058570277,-0.5488508676,-1.2051759258,-1.7747430871,-3.9217056469,-13.1306523224,-5.0979660358,-0.0999315373,1.3605896558,1.0313444416,-0.8682155546,-5.8435250711,-8.5816837341,-13.442742038,-13.1443176273,-14.0220951058,-14.2159897234,-4.2774778408,-14.2988946529,-5.2943541925,-0.8180324334,0.8054772517,12.99866861,-8.4325472623,-38.0929970641,-13.6579888328,-1.2088120823,-2.8610713608,-0.9065807134,-0.4805329771,0.2779702281,-0.3832453958,-5.0153337671,-13.8048239225,-1.3606977506,0.9940256011,0.2807651594,0.5696934858,-0.6910214208,-6.3377974914,-7.0844192504,-5.8689208447,-8.0308385842,-8.5072066341,-8.683781343,-13.874748763,-13.7488555728,-0.6963535276,-0.677532195,-0.500975304,0.1355952432,-13.543211684,-23.7230840319,0.8108357731,0.7573217833,-0.6682991174,-0.1971012866,0.5966052735,0.6271429217,-1.4710420792,-4.0895410221,-13.5270841254,-0.9015097947,1.1361134439,1.171652595,0.7303382875,-1.8121902144,-7.0073084537,-5.8965187732,-4.9619645216,-4.72659834,-4.6797491899,-8.8407397088,-8.9124452692,-5.2699671149,-0.9024907918,0.1912754378,0.0354832521,0.5110000691,-1.357076179,-4.3621491145,-0.495903849,0.1227542467,-0.803492789,-0.413448989,-0.6277187082,0.4051330833,-1.3137165045,-3.2923032711,-1.3713015207,0.4705274722,0.9146810277,1.2453303977,-1.1919599449,-1.9965401913,-6.7034119208,-5.1649459909,-4.2481097401,-5.0810070262,-4.9209885924,-5.554627814,-4.9169819983,-5.4034461531,-1.1124784694,-0.5004567793,0.058394873,-39.1360390184,-1.3023280068,-1.0154281187,-1.135026157,0.0751964919,-1.1144038257,-0.2498285745,-1.8941756471,-0.9171822308,-1.3623879302,-2.2705999346,-1.5227338891,0.4912960208,0.2673759736,0.8666965973,-1.1680321783,-1.926762819,-6.957608924,-9.3256729482,-5.1342496746,-9.0428511944,-8.608902441,-8.1050148237,-3.8661797062,-1.8580251675,-0.2666061398,-0.274092868,-0.1648068531,0.9839588089,0.736861091,-0.9774163323,0.0347377894,-0.4605787754,-0.8710889907,0.3397824695,-2.3550840461,-3.2506308533,-1.9172684917,-1.564987896,-0.9163043401,1.4842235872,0.7185067696,0.7959727749,-0.8921035926,-6.0388986086,-13.7251828347,-13.7300670087,-5.195445918,-5.585129733,-4.9937801623,-5.4718909642,-6.2899163291,-0.9139029767,0.1434316018,-0.3006082665,-1.1313161725,-10.4791516456,-1.8160666108,-1.6497279668,-0.3055061544,-0.2235204268,-0.4437865621,0.3526529532,-0.8406730218,-6.2869379676,-6.1913278897,-1.7762340287,0.0641532436,0.2271845407,0.3288661799,-0.5634733666,-2.3797308092,-5.772379628,-13.9481323742,-5.2510182218,-5.6305120526,-5.552176108,-2.5300769971,-1.2170879477,-0.0624223168,-0.6992571931,-0.6079964714,0.0006966925,8.8601330379,13.7164073913,-2.434975459,-1.3320228319,-0.0478643564,-1.1633509649,-0.0158801539,-0.981393604,-0.3647101989,-0.3086317335,-1.3890945477,-0.9100984738,0.7134654347,1.0080086527,-0.6922001084,-1.1801609354,-2.7671307995,-6.0204721418,-13.891096383,-6.2929144891,-4.9958050685,-0.6946561477,-0.9144589618,-1.14884392,0.0934293067,-1.1236645288,-0.3199608921,-1.0049041436,13.8576592462,0.332047164,-4.8995865599,-1.6665955693,-0.6890729278,-0.5949600735,-0.6711014897,-0.8249841286,-1.0691706912,-0.2129630679,-0.1500796468,0.1531673546,-0.7249860919,-0.3718891586,-0.4030997109,-1.1480068071,-2.6782944229,-5.5895611506,-5.1061752327,-5.5498273061,-1.0325960238,-0.8814739865,-0.3270201817,-0.6287104108,-0.1039240521,-0.2695537257,0.045538487,-0.83803003,6.1043006274,12.8497342243,-0.980458804,-0.3607853295,-0.7516113021,0.185328366,-0.1121872079,-1.1728998171,-0.2890227602,-0.5639333422,-0.5552782977,-0.3216362106,-0.6965611041,-0.8896055485,-1.5549435025,-1.7123768229,-1.3542864767,-5.6791084073,-1.6383981025,-1.3691538229,-0.445480416,-0.9716726873,-0.3202363064,0.0114668374,-0.5249093656,0.147399754,-0.5035843507,-0.7192306354,0.2839881143,13.1919039794,0.0437624011,-1.0959129559,-0.3132081652,-0.2578354624,-1.0276690958,-0.1896185032,-0.4056758807,-0.1460822605,0.4599565281,0.0731884357,-0.5543679074,-0.600350139,-0.9808591692,-0.9656781997,-0.1398329555,-0.1741386658,-0.9602320781,-0.4456808333,-0.0189650223,0.4281361847,-0.2802608193,0.311029003,-0.3741384238,-0.3042046215,-0.2912446355,3.3199501226,0.0160587006,1.3155871644,1.0421333844,-2.01631281,-0.6561778539,-0.277828414,-0.4969413171,0.0797903965,-0.695629635,-0.7068002888,-0.3525046536,-0.3299806339,-1.1626861835,-0.4615128024,-0.799462734,-1.2536727867,-0.72454539,-0.1028774411,-0.3091311544,-1.9651156321,-0.0635208839,0.3179465973,-0.0160112359,-0.1765133892,-0.9488135487,0.3180440046,0.6539305645,13.515299081,1.3607171717,0.2678672136,0.6381771382,-1.8441998185,-2.3439296414,-5.0104606945,-0.7477050748,-1.3893732447,-1.597756705,-1.7521629605,-1.8634447768,-1.4846641623,-2.1200627716,-1.6226947531,-1.9426577063,-1.4211315791,-4.5317749036,-13.6793239055,-6.9731117456,-3.4532984455,-0.8077503856,-0.9366508636,0.3154501788,-0.4903418478,-0.0956567439,-0.8717175338,-0.715295688,3.354782353,1.1561733303,0.891629009,0.7366683911,-5.1369117389,0.7213166289,-4.5935544179,-5.1195915139,-14.1625114092,-13.1734025028,-13.1972213191,-17.940459372,-39.145597969,-38.1196983851,-37.9995961413,-38.3845518776,-39.2409823387,-39.1613548648,-5.2455159331,-4.6035840249,-5.3344568545,-5.4665303091,-5.2881628091,-5.6637204539,-3.9218822815,-2.9616887161,-2.6167280952,-1.3528284848,-0.1970477775,1.2079750146,0.0812416102,0.6077486426,0.6492341876,-13.7018489965,-5.3564944341,-14.3664484689,-13.4087928682,-13.6092431849,-17.3217806111,-38.8607496898,-38.1516731599,-38.4630969382,-37.9655085979,-38.4165976,-38.5742937644,-39.0395242122,-38.9295700512,-38.2424595905,-23.854827981,-13.1248984557,-5.731106191,-5.2998007658,-13.8929925944,-4.4093962995,-1.985742977,-14.4178704237,0.2537894629,0.9235631588,0.1326387474,0.0791325739,0.2002717567,0.279142508,-13.4046173852,-14.1093083041,-27.0894304919,-38.6643352058,-38.3244487837,-38.5244879973,-37.9974428915,-37.9999247927,-38.379946473,-38.53728536,-39.1895282349,-39.1946292524,-38.520213945,-38.4667333218,-39.0988907831,-38.0115665589,-38.0885689322,-38.7187398121,-38.5856943947,-38.2854476569,0.4323463414,1.2224150585,0.1429301278,0.9334750239,-2.8316228379,0.1621455627,0.0794171138,0.8358487222,0.643982775,0.5800694133,0.7538884789,0.5246456143,0.0912321941,0.8461590955,0.1681398886,0.8598839429,1.1240657161,-0.0782861831,-0.8946991948,0.1861530811,-0.5771810736,1.2199561642,0.2491004695,0.9859519728,1.0404264252,0.4492190781,0.0783128922,1.1973693505,0.1146907546,0.8009649346,0.0284751138,0.4315905357,1.0809340364,0.8675218383,1.3713739544,0.3523295139,0.4918347223,-0.3485354286,-0.1524564966,1.694924777,0.1142893623,0.1571285758,-0.7678346948,-0.3553440865,0.0387715658,0.1598211992,-0.936268367,-0.7787536415,-0.4556504599,0.2553468684,-0.0821149838,-0.3053918383,-0.6209735844,-0.0455092847,0.2485011298,0.8533090302,4.2440939141,1.1992566784,0.1078769581,0.030754903,0.2199655781,0.6453972077,1.0753118314,-0.8050529641,4.2962654741,-0.326389743,-0.613537738,-1.0432877782,-1.4337706099,-0.9654006176,-0.6784273078,-1.155262464,-0.0907986168,-0.5059819195,0.1271326034,-0.1392888827,0.3821865086,-0.1045578933,-0.7536585239,-0.6656644424,-0.6263470223,0.2378296419,-0.1429278626,0.2919557475,-0.7623331089,0.0487802926,-0.0525471805,0.8654363557,0.4660555774,0.9284633633,0.0017512519,-1.5738985023,1.4218928566,-0.3648609784,1.1775495087,-1.711640257,-1.5060227858,-0.9004058505,-0.4859290933,-0.3487270092,-0.9912771034,-1.2821993963,-0.4842605273,-0.3502390868,-0.0105517999,-0.8425550195,-0.8567807341,0.1710359313,0.3786163466,-0.7997780082,-0.8196866442,0.1758160442,-1.0196647727,0.2991504156,0.2033880519,-0.5251130663,0.6852576533,1.205816853,13.3327806396,0.4923096865,2.1722086384,6.1027108019,3.8409643086,4.0679745881,3.0086745109,1.3698203513,3.8631128994,2.9116059747,1.3703037906,0.5204468665,0.0441886872,-0.1064834847,-0.3563068358,-0.3129571501,-0.7426372805,-1.9585046535,-1.1072285816,-1.1890283381,-0.8358440414,-2.1300223035,-0.782988754,-0.7258622706,0.0215626814,0.6815765128,1.7465162196,0.1786183922,0.0390267684,-0.486977074,13.3788033415,13.1775698963,13.4268408693,6.4809295104,6.8233652892,5.8685451393,3.2247160821,3.2246346401,6.9175099222,2.2336776971,1.710773758,2.1336632027,3.8475487395,4.4221803227,-0.0149574573,0.5227945394,0.3186021902,-0.6450413536,0.1408813632,0.4601514645,-0.3992724254,0.4297678946,-0.1837363696,1.6679061056,0.2385484767,0.9024790818,13.9209159882,2.0443481999,12.4533271724,12.6592765529,4.1368210316,2.5549879546,2.3800724321,5.9363932702,6.5024362267,2.7198603353,2.1765111216,1.4775655843,2.404297215,4.4727342998,3.8418116855,5.0282383874,0.0616591107,0.2826534827,0.1000029235,-0.0801931486,0.5267483012,0.504340847,-0.1413105225,-0.4790414118,-0.5381220758,-0.1410581343,1.629635483,0.710609313,4.0611525069,0.8361559208,3.9207020451,4.1059667428,3.8916244811,4.1478080869,1.2549906835,0.9781507618,0.0093392442,-0.004161056,0.6403919551,0.9975206487,-0.4557194852,0.5449016236,-0.5174968768,-0.583569513,-0.5797696402,0.3159140585,-0.7688208488,-0.197746413,0.6090730346,-0.7038701313,0.5559604303,-0.4217813372,0.5932387968,0.7374339875,1.0868733016,-0.1362786957,0.9821495033,0.6374029278,1.439986844,3.6138193989,3.9095237379,3.609073166,0.3991515323,-0.2443625278,-0.4328612039,-0.0067775932,-0.3395861204,-0.1616970998,0.1967103417,-0.9326726537,-0.4329405739,0.2370703823,-0.4604025268,-0.350785572,0.2864821853,0.4093334463,0.5825988044,0.381072579,-0.4138045773,-0.2960194486,-0.4133750926,1.0278930449,3.8729112145,-1.7044890916,-0.0432442953,0.0852800969,3.0785570079,2.5716895086,0.7333668906,-0.7032779584,-0.3545824333,-1.2570210299,-0.0698309682,-0.5961167118,-0.4800950344,-0.3060101861,-0.9938522398,-0.9187743401,-0.2978348244,-0.7301001529,-0.8373978409,-0.8470158239,-0.837833076,-0.9312117585,1.0308375059,0.6493074184,-0.0164404891,0.061563843,1.758202373,4.7937647732,4.3086676195,1.1532181191,0.2348930237,0.7522751827,0.3506567323,-0.1966626469,0.4141235848,-1.0510829881,-1.5720216758,-2.3344315837,-2.0242545724,-2.154595212,-0.6555933072,-0.1376841343,-0.9599540006,-0.6495400016,0.4580099735,0.0720694172,-0.8733281875,-0.1442373621,-0.8456347544,-0.8078951388,-0.102730894,-0.0181765428,-0.6115276197,0.8419249265,3.9414608248,5.0004447722,4.1727819912,6.0263187481,5.7905555199,0.6545234122,-0.2237083794,-0.5086303181,-0.8773690517,-1.6268686212,-1.9902746846,-1.4424094736,-2.347971647,-0.954239148,-0.943026196,-0.4693717615,0.9113327543,-0.5059023758,0.284359847,0.0581511992,-0.6966078069,-0.9422510975,-0.9947444658,-1.0202634348,-0.3206727786,-1.009363256,-0.4719888922,-0.2465083258,1.6240499497,3.9899946953,-0.2113590676,5.4806863367,3.0805132785,2.878707131,0.7731029796,-0.7290061436,-1.72921546,-3.8802907062,-4.885857747,-5.0863622542,-1.6173740665,0.2279608293,0.4963001696,4.8199117479,4.8851235503,0.2168791666,0.5632823877,-0.3952224914,-1.1026227477,-0.5440688079,-0.0499823509,-0.3070555788,-0.8187997575,-1.4190515651,-0.2585213023,-0.0055487203,1.1801417046,1.2350216065,-2.439404442,-1.8209264714,-2.8798717283,3.84132728,1.0623352093,-3.7138767505,-3.3677790091,-13.5858077993,-13.724799161,-4.6308208972,-0.9326763918,-0.3724856849,4.808653423,3.7490674093,2.4429494956,-0.1444188249,-0.0300807907,-1.0929016961,-1.3476289716,-0.2461621621,-0.7968330835,-0.1385577973,-1.2414580651,-0.6854548087,-0.4730317634,-0.2723063521,-0.9305053216,-0.2756262894,0.2716536926,0.3411334113,3.6422007888,0.9235377347,-12.9138487212,-13.0503585301,-13.8869881507,-13.2985260887,-12.7311658887,-5.0168258173,-0.2429115976,-0.6101679772,0.3289741661,2.8055692002,-0.4604924571,0.4736170403,-2.3112807139,-1.1346279286,-0.7104016075,-0.0610740944,-1.30453795,-0.4366685075,-0.7947565355,-1.0878471567,-1.4393192167,-0.3636889884,-1.8479658267,-0.318708595,-0.327704801,-0.0849427873,13.0114108186,4.3133675225,-13.9004818554,-13.3151233357,-13.9061612526,-13.7698019979,-13.8120916681,-13.8830469501,-5.3974293719,-0.6558708423,-0.069256549,0.377319025,-0.1402579953,-1.5842946924,-1.9541675737,-1.728012136,-0.2272932579,-0.3329272666,-0.8056941985,-0.8282482011,-1.041968977,-1.5059278901,-0.9295454288,-0.6966874541,-1.6077338389,0.2629438469,0.5134259681,-0.8744427361,12.8533383912,14.0048504208,4.1495488338,-0.0659367525,-1.9814037055,-4.5821637943,-5.3393808334,-5.0981949645,-5.5317839898,-2.4154182165,-2.4938900266,-2.6838854071,-12.7183211447,-13.2309061977,-5.1688327391,-4.5344059146,-0.5227972498,-0.0982421214,0.3007671965,-0.2603379094,-0.2168464086,-0.0573832294,-0.4817120411,-1.9521961216,-2.5257700051,-0.0694938177,0.5100238778,0.4427654505,5.8260709104,12.853955577,13.3472355032,-0.3248638467,0.3107621021,-0.6726621116,-2.3171323662,-1.7773414284,-1.2222549492,-2.1943660291,-2.0017622943,-2.5608875949,-14.0136894184,-13.7394865115,-12.8631785543,-2.7971179099,-0.5454969983,1.648710322,0.2046532386,0.5952903382,0.173352448,-0.6881234819,-1.1005624778,-0.7216633346,0.433835237,0.3765773773,-0.5421872189,-2.3745844815,13.3330833983,12.8950997377,13.4867540578,1.9297014774,-0.5610592645,-0.4169612331,-0.3187167756,-0.6337315032,0.0629472535,-0.5017830269,-1.655062409,-2.3664342278,-13.9362578733,-8.9197729073,-2.787840473,-0.7762168488,-0.5460968033,0.1371473408,1.8964149897,1.663454985,1.4041620451,0.0892906568,0.1654423358,-0.6857825719,-0.3734240991,0.0604432401,-4.9293424938,-1.7952905069,4.7050362971,13.0268411552,13.2328546045,13.2161718047,4.1047368965,0.5695642527,0.4793017883,0.1249493064,-0.8687074997,-1.2271167731,-1.2108899709,-1.6715780409,-8.5672099095,-3.514410501,-0.4279944968,-0.0806776463,0.4004474177,1.6423713224,1.8814274429,1.3223660012,1.4542001735,0.5391322661,-0.6760034985,0.5027179107,-0.4307771896,-0.5920850325,-5.2114987969,1.0172273442,13.2847898739,13.4473723631,12.8484913119,12.8264020685,13.6117464313,4.5967797837,4.8892418385,0.4884191238,-0.0307198169,-0.8631144773,-0.8795975418,-0.931902317,-0.4225396492,-1.4575163402,0.2034528102,0.2913244118,0.8546218395,1.9412258269,1.6482731554,0.3785294044,0.7834819141,0.4866208997,-0.103737154,-0.6584897261,-0.2598796538,0.3855763431,-0.3997646344,-0.4469804098,13.178813563,13.5261143106,12.9789104255,8.9514161976,13.7335720147,4.9292302103,4.0578334535,2.5872143058,2.6505185337,-0.519630403,-0.2921843155,-0.5855551909,-0.2709640444,-0.0253625919,0.1498607224,0.5297690477,1.7899698913,1.599764904,0.7710837502,1.0273766938,-0.1270181805,0.4197203791,-0.6963403611,0.2237447788,-0.3777617224,0.2454589644,-0.697728705,-0.8918067064,13.4060471488,12.7904039845,13.1287605604,6.3691511603,3.8758625136,12.8447035298,3.8701642574,1.5476926386,2.4094446013,2.3953604887,0.0878304451,0.3255770719,-0.3482959306,-0.2082831198,0.8532046585,1.5136041189,1.4914212238,1.119983083,0.819775407,-0.3472687149,-0.4399921453,0.2293642669,0.3979893413,0.4161828617,-0.8007987669,-2.6517016463,0.1087921781,0.6479895046,0.8478710058,14.1236494341,13.7302718205,13.7002927076,6.6530741099,13.1963311234,4.7212704351,3.9581001203,3.881665659,3.7516819563,1.0396520178,1.6832908063,1.8887902444,0.7830688706,1.2505438252,0.9819341345,0.8516972626,0.3079674501,0.0089567269,-0.8250252978,-0.0569920467,-0.0826314856,-0.1499756018,-1.0046951906,-0.3299742018,-1.5114641833,0.3823713374,1.2336790513,0.2298461674,13.4646808051,13.3228993735,12.8296795308,12.521608545,12.7872211427,1.3195407921,1.1417363432,1.0592990842,1.9499660454,1.4750069036,3.6381941896,1.3890847657,1.4332111525,-0.4655041542,-0.7874266968,-0.6745021947,-5.4277573531,-5.0224815071,-4.9810320511,-2.462616639,-1.2201193568,-0.7084856704,-0.6603735921,-0.5867809084,-0.4354417168,1.3394409614,0.1215604831,0.3970218691,12.9614949147,-1.0424929673,-0.169758215,-1.1732721717,-1.2308690794,-0.4306308924,-0.1718516804,-0.9311604944,0.841527923,0.8753922954,0.241673039,-0.7838516205,-1.073998432,-1.014507755,-1.0174523222,-0.5819407214,-1.2542189098,-1.0663753654,-0.6395309957,-0.4492191437,-1.6212576203,-0.269037045,0.5595639619,0.1937620484,-0.0451110175,0.3854667758,0.672617284,0.8047981314,0.0771987752,0.3497288084,-13.6010564967,-7.3592851652,-3.3159158442,-2.9487962435,1.3052872406,0.9004838704,0.92491415,1.1911045132,-0.6270004197,0.1766637278,-0.4887218395,-0.3229558421,-0.2048164492,-1.3990615663,-0.5376980486,-1.1466532028,-0.7751604729,-1.7282636839,-0.6914191271,-1.8735349303,-0.7811718558,-19.2291699275,1.2229242073,0.8896607156,0.654542596,0.4145341028,1.064421002,0.3551687691,-8.5125854092,-1.4819223457,2.8006660028,3.2018154772,1.9751065624,5.8526466265,0.7196634195,0.9017216536,0.723703119,-0.2615805925,0.7416498486,-0.0433381513,0.8445276217,1.0192499197,1.0618841815,0.7155137309,-1.1085218035,-0.3516847016,0.4551731035,2.1316373619,0.6351216064,1.2187035171,0.1495558274,0.8034386984,-1.6211410245,0.3437087182,1.3571483101,0.380386533,0.7389487501,1.1475811312,1.1527912611,1.2504802474,0.7532889674,0.054912385,1.1620232241,0.5941118316,1.2038130296,0.5723071685,-1.6594253314,-38.3673895798,-37.8624409258,1.1154862407,0.0863476213,0.4744183574,1.2935787209,0.9565486676,0.4717233346,1.0314467367,0.0025048959,0.8830242247,0.9989385063,0.7730236461,0.1491112933,0.4831162123,1.2715241769,0.4683521417,1.1146003212,0.7541555178,0.2308940169,0.8604913708,-0.1472314546,0.1559529277,0.1610541568,0.8772243624,0.1304944284,0.2301006778,0.0737314783,0.1631228145,0.4635599594,0.1497088452,0.0315228531,0.1981990975,0.4608479758,0.4240142818,0.5718650842,0.2222736424,-0.2850107786,0.943918475,0.849154737,0.3261413434,0.0131579505,0.5874849369,0.4594933615,0.3072148707,-0.547502881,0.1051829511,-0.3787761938,0.9881354521,1.1696637986,0.6670775942,0.4840977074,-0.2480991063,-0.1239433933,0.8159745569,0.6884304116,0.2752826627,0.3458997455,-0.1201640328,0.1649805738,0.4668982601,0.1613886158,-0.3012972355,0.0881103189,0.3971860636,0.5569704965,0.5255135593,-0.2519423171,1.1021602218,0.1904853636,0.0974860836,0.1281218048,-0.4660261996,-0.0028123837,-0.4075639571,-0.0043709419,0.2987432116,0.178758598,-0.2713300959,-0.9454953382,-0.7006935662,-1.1248435454,-1.0800646881,-1.82801529,-1.8722931853,-0.6917605595,-0.6939552144,0.3451053847,-0.5735626855,0.2855921069,-0.286094006,1.3417411582,1.3072233041,0.6162707202,2.305360066,0.0232328159,1.0866642025,0.0856192976,0.2571032443,-7.4521900756,-38.1642069997,-0.3685840719,0.2516021958,-1.7873912299,-3.346739927,-3.2504883152,-1.5257961168,-3.727243095,-0.909031435,-4.0337275312,-3.8047367337,-1.759720901,-0.8741095859,-0.2173795885,0.5306479284,-0.424909027,-0.384436596,-0.093917202,-0.2805290095,-0.2938666532,0.0120349219,0.1736757802,1.48825536,0.2207993825,1.0208691509,1.605606812,0.8585565842,0.0454512777,-1.5898525127,-6.0976814454,-6.5776153819,-2.8955001828,-2.3052708984,-2.2162578252,-0.7108571078,0.2186556139,0.2725941185,-0.0208518322,-0.3283818312,-0.1327879663,-1.1915688271,-0.532514441,0.096783199,-0.742218751,-0.6780646976,0.3991799578,-0.0639684194,-0.3753064798,-0.4363989503,1.2294102725,-0.0688318913,0.3262170201,-0.31578854,1.0825967019,0.3512670736,-1.4746722092,-0.7201796752,-6.1753767911,-3.1657157153,-1.2747737387,-2.7947502786,0.2529040203,0.1652108993,-0.0603268053,0.0605976984,-0.421851224,0.0154682987,-0.2096123262,-0.3647306172,0.6994454538,0.1217361536,-0.17096065,-0.0606320027,-0.0836304474,-0.262968427,0.3239587909,-0.0611009427,1.1004685228,0.7760753334,-0.2769168424,0.0409205797,0.9396259113,-0.6736508539,-2.6328390187,0.0767035106,-3.5735648305,-3.0816817028,-1.8228515876,0.0673453156,-0.1896889848,0.0747645469,-0.2663078995,0.3290992189,0.3039852741,0.553079338,0.2548235046,-0.3246982604,0.5610061856,-0.2584180372,-0.2293520445,-0.4514696318,0.0858276349,0.8763836936,0.4281105286,0.6590493362,0.8905243914,1.0519208292,-0.270455346,-0.0816241257,-0.2852358348,0.429245928,-0.3041054206,0.0784617343,-2.5687491551,-2.9394726715,-2.166832032,0.1548333382,0.4301088472,0.1951656432,0.114750452,-0.3241825359,0.3822940248,0.8021084397,-0.1473154272,-0.0243377642,-0.6227866895,-0.3711078014,0.7130093258,0.4476428931,0.3707042499,0.5937263759,0.9141053477,-0.2132360072,0.7967183782,1.2016578121,-0.0820674043,0.5047164532,0.8012601213,0.4725073511,0.1081099415,-1.0650908358,-0.9832894274,-1.0118833589,0.0329622532,-0.4432453459,-0.0053956996,0.8391245121,0.2897140448,1.5131882772,1.5450893478,1.268285527,0.6052344799,0.0458733664,-2.2305416578,-1.4514347214,-0.6239207048,-0.1405071427,0.5325404687,-0.0026531246,0.2632158199,0.0396843648,0.6342833134,0.688952491,0.755037397,0.1118807832,0.1749197783,-0.057387087,-0.0173509509,0.0491754383,-0.1361626365,-0.4686320545,0.1282793575,-0.0705508905,1.5349037299,1.4319167706,0.1638514717,0.3993119181,1.2071353338,0.7046992469,0.7537231822,-1.4906970863,-6.20856949,-0.705931144,0.3933913966,0.6277564443,0.4154199663,0.6812392694,0.3275184223,0.2643017164,0.3160188186,0.955906814,0.870795957,-0.276139167,0.5827532329,-0.7767739472,-1.1991136509,-0.1184020013,0.0313484513,0.0577934718,1.0757407227,1.0117665566,1.4390504924,1.4736913453,2.0854342783,1.0471205222,2.1811294767,0.1256362079,-0.1682207708,-1.0808143272,-2.88133151,-0.4465905151,0.646448295
   0.5100766861,0.4897965654,-0.1954527443,1.2896472286,1.2894197189,0.1084965874,1.1497917252,0.3755782113,0.6137611992,0.0392591336,0.0262297665,-0.6517144636,0.3054053101,-0.2194790691,0.335437528,0.0309303876,1.8982780718,2.3678581039,1.2761802064,1.6434132867,1.7950759463,1.5117475584,0.2860616137,0.5476675578,-2.7596348577,-0.1642035893,-0.3651035641,0.3850134726,0.2259110227,0.9094251002,0.2632067554,0.3766475506,-0.0149943606,0.7233249636,1.1204939518,0.8754578468,-0.3752656949,0.3104433023,-17.7588930301,0.7137748608,-0.1448601202,-0.2028969465,-0.0210678837,0.4867143037,1.0487552028,1.5506911155,1.4812928154,2.1433790522,0.5160154708,0.5303563976,0.8537321025,0.3656033636,-1.342645392,-1.4324765332,0.4663001411,-0.3109038465,0.591544325,0.2134512274,0.0262942326,0.3504391026,1.2127590442,0.2282123493,0.4264365655,0.1069333561,-4.9063610887,-38.0743968319,0.2546315633,0.5480211713,-0.4252941017,0.7067751091,0.7228720402,1.573365872,1.8469424302,2.0319413696,1.3674389306,1.7651821704,1.0219745479,0.3162668478,-0.1948093976,-0.1128826188,-0.6355418159,-0.2621661359,0.1333386435,0.1912064993,0.5951907401,0.2271228891,0.3128187701,0.8019034043,0.4296926775,0.2704699695,0.0158942018,0.0144840164,-38.2854447572,-24.2390859694,0.6185442922,-0.923817826,-1.1281718361,0.0734208884,0.3034664648,0.7956042205,0.9752434167,0.9844027911,1.9158001976,0.7529462611,0.4865692649,-0.3422312035,-0.3274283389,0.7002211578,0.2516726384,0.5293686547,0.5722378809,-0.2022156385,0.4025252743,-0.3880805115,0.3060600715,0.1103299649,0.0333809981,0.3400110725,0.7609699549,0.5094352449,-38.3974974793,-12.1737453108,0.1344162459,-4.2785685377,-5.0392301183,-1.4071091887,0.1313237276,0.7424738289,1.3644132022,0.2216367293,0.8682393031,0.8528472992,-0.1416388783,0.5465813523,0.1195408887,0.174731617,-0.8398926859,-0.2156079328,0.7646955787,-0.2582730626,-0.3095236473,0.0802227684,0.7377845098,0.9584395258,0.7796738905,0.1452105958,0.1322006831,-1.1416491053,-38.8014976139,-24.6899072785,0.8378715296,-14.1762574862,-2.0205245632,-4.3425886623,0.2979797746,-0.3502433357,-0.0799840224,0.8514507245,0.4184332992,0.7796181424,0.7421645502,-0.3723879148,0.3537492031,-0.0386192989,-0.055972988,0.6306175153,0.118520589,0.6525717021,0.1371770276,-0.0316136109,0.3545756923,0.1897835476,0.5115767116,0.1601441323,0.6122370915,-38.1552357017,-24.4157424997,-4.8670422067,0.4454693659,-13.9083125575,-2.2598185041,-14.0068161502,-0.7942388739,-0.484830627,0.7162663088,-0.1804018697,0.3952832511,-0.3757866969,0.8023991582,0.4800102003,-0.265303643,-0.4477962348,-1.1102097623,0.6532740439,0.0742364086,0.7478168878,-0.4565646341,0.4568100465,0.015061479,-0.491814878,0.6110445077,0.2319915306,0.2713076612,-11.1863696834,-5.0302068099,-16.057012768,-6.070184665,-3.4147881091,-1.9897564588,-13.5398660698,-4.3232723558,0.4644253308,-0.5860754555,-0.6141944708,0.2419905499,-0.3775090693,0.5613605895,-0.5649985203,-0.3261354346,-1.0266023009,0.5077092186,0.033790497,-0.0239944898,0.0831401067,-0.0409625443,-0.0389177039,-0.1044714428,-0.1160169878,0.2841968757,-0.275762854,-10.8727820243,-10.2905197906,-38.5784155667,-38.3730168209,0.8297603664,-0.3128875551,-1.6969499907,-13.7554662372,-4.3440810913,0.2478220095,-0.6963778211,-0.5214993264,0.2771159256,-0.51624554,0.2887957714,0.4070454494,-0.4596758414,0.2345679708,0.5022090639,0.4219163688,0.7353667004,0.779738804,-0.4573963632,-0.2605817475,-0.7724214326,-0.1174234895,0.2606402068,-2.9140770857,-10.5407559782,-7.323532541,-12.4715111105,-3.272090546,-10.6460602017,-4.6566992324,-1.1497728901,-13.4745351766,-5.0410194968,-0.9997931463,-0.310876945,-0.5274291148,0.2030867801,-0.4208516682,0.274130999,0.6254755532,0.7970495611,-0.4189502782,0.057816918,-0.0518154916,-0.0508021556,-0.280294472,0.0051890649,0.621968664,0.4805353345,0.014136999,-0.3173972943,-5.7901298364,-10.4890908167,-10.5974674809,-2.1143046169,0.6739875187,-10.0280181985,-2.3602485381,-2.9268879756,-13.2098312759,-1.7950657503,-1.3923036405,-0.4315654967,0.4176578607,-0.6195345213,0.6500220168,-0.648366815,0.2708293113,0.0110038672,-0.2828861887,-0.1068417674,0.6209080162,0.3277360835,0.4370053673,0.2931358667,0.4448293406,0.1813229743,-0.0808834855,-1.986106261,-6.0833397202,-5.6744656683,-5.2819360263,-4.9666867971,1.0771905781,1.0136547908,0.792909834,-1.8560360063,-7.1598696431,-3.7938778129,-1.022638275,0.0609256103,0.4583300575,0.2834156267,-0.0816549232,0.6679113134,-0.3723066336,-0.2088672895,-0.4602919983,-0.0225679368,0.0869997291,0.7874063979,-0.0401221474,0.2001951126,0.4938548188,0.6667022005,-0.2804059201,0.1047791114,-0.0167462484,0.0297813798,-2.8874300836,-38.7791031058,0.2964144251,1.3950225481,1.3854503574,-1.5309270204,-1.7176827557,-1.7771140564,-1.7269440836,-0.0889475812,-0.6270052047,0.4591193116,0.2458415353,-0.2145769509,0.1893947355,0.2218212482,0.2806177314,0.745120069,-0.293604093,0.2414064009,1.0131472605,-0.1229125538,0.6812096065,1.3638704663,1.1418719231,1.2636087431,1.169369986,0.3214460172,-5.0020724755,-38.1086583164,1.2331582576,1.1223391961,0.8691649149,-0.4545794166,-0.7290902475,-0.1447869516,-0.1846115642,-0.4261840164,-0.3195137595,-0.4966718602,0.4666509174,0.092586064,0.3396878094,-0.0937112797,0.8349736369,-0.1723185703,0.4540332792,-0.153583445,0.2280589184,0.0377082876,-0.4561889062,-0.5180420108,-0.1404487989,0.7116784634,1.5204615908,0.4334411556,1.0097828741,-39.0236885606,1.1826242164,0.6658030739,0.1683043506,0.0765662967,1.7049940166,0.862801209,-0.2638048622,0.5045412348,-0.080604758,-0.1920429727,-0.7138593579,-0.0501347845,-0.3080214773,-0.0819050967,0.4922194016,-0.477307937,-0.6686736262,0.2990556135,-0.3868934406,-0.6381341671,-0.8382844496,-0.0461491652,-0.8479305072,-0.1426149144,-0.1429047507,0.8056867001,0.2017539612,1.0019908057,1.0847783697,1.252369011,1.2508061702,0.1570548704,1.2188824531,-0.9976725,-0.6247989198,-0.2409076235,0.4513608477,-0.0095592994,0.048020535,0.144887514,-0.3200855158,-0.9164728103,-0.0924010317,-0.6540950588,-1.0524683355,-0.2425373948,-0.3590504457,-0.1077196752,0.2808184444,0.0069455908,0.015026556,-0.6821181376,-0.0546348071,0.4723949773,0.5232996655,0.8408258538,1.2934638591,-0.561364748,0.1395431603,0.6506035744,0.0652043157,0.0573270627,1.3148909482,0.3643112282,1.1713808014,0.783439408,0.7543193515,0.7055719085,0.8504279134,1.0300896842,-4.1001742044,-1.7385280861,-1.994430281,-1.6400796897,0.4079470713,1.0774416311,1.2306863599,0.1328519825,0.1132011651,1.2412504844,0.2998180349,0.7423515546,1.2978829499,0.4164444061,1.0133507599,1.3719229174,0.2108210623,0.1136916112,0.1487939388,0.6373039549,-4.3810323213,-3.9861503252,-4.4977762406,-4.048425151,-4.3127526563,-3.8472745312,-5.081732885,-4.2262926542,-3.8120470239,-3.8809974108,-4.988137361,-3.8465215263,-4.1327110572,-4.1440219587,-3.7722888498,-5.1180373559,-5.0832841051,-3.9251848476,-4.5302111412,-38.2261572367,0.8528661809,0.3030695744,0.4407442224,0.6472995898,0.4768148744,0.1485810278,-4.4832210476,0.7134334155,-4.6725469572,-3.7826479379,-2.4051682081,-4.3054148644,-4.62696108,-4.0793410048,-4.4278676314,-4.6981835033,-4.2241054448,-4.1294377102,-5.0292196335,-4.3579987931,-3.9249788159,-5.0908347946,-4.4548679093,-4.3766760476,-4.3206368454,-3.9577147506,-4.6506847089,-5.1012082421,-4.3223457933,-3.7544729278,0.7206097146,1.1466928639,0.5132262171,0.5202736497,-4.5649275155,-1.7349542136,-1.0949916007,-1.1906970048,-1.3064232325,-1.5054034641,-1.9055483334,-0.8389478633,-1.1376336535,-1.6918400025,-1.8455282241,-0.7835374557,-1.4940889792,-1.4991910518,-4.8020601617,-3.945890805,-4.1008607233,-4.4567245033,-0.8972041694,-1.373473604,-1.229671317,1.2689310927,-0.1071767683,0.3353379169,-0.4080239552,0.1159331417,0.9643920748,-4.2682794219,-1.5902671018,-0.3050623788,-0.6968993612,-1.5290069852,-0.9450666007,-1.4790042487,-1.3783275988,-1.9534228894,-0.9229571862,-1.8246804913,-1.9765108983,-1.0980647382,-0.9243554775,-0.7786410994,-0.0330987184,-0.1897121593,-0.2661712679,-0.3555894706,-0.2398934642,0.4455719439,4.7949360749,5.0424631798,4.3043393811,1.3316353035,1.0090461544,1.0149917141,0.1993925418,0.9665704325,-5.0101123991,-0.7178707077,-1.4048754665,-1.0869782483,-0.8919432411,-0.1438799901,-0.7291915476,-0.0828655205,0.4576733392,-0.1659437756,-0.3692958054,0.6237597009,0.0299608218,0.2706984822,0.176031135,0.6397073166,1.523689008,1.6951849378,2.2358628383,4.8201664585,4.7880693294,4.5781700221,5.2864885418,4.0990004649,-0.3441100398,-0.2990917497,0.3139231581,-14.3930446224,-0.3828111722,-1.1993851379,-0.6764355546,0.0860671228,-0.1804869462,-0.4640626527,0.4000319904,0.1123741669,0.5177912971,0.7575725625,0.4666967736,-0.2952186406,0.7358230096,0.4804613168,0.8075801305,1.147632772,0.6523250835,0.365897778,4.30135956,4.7637563702,5.0310045065,4.0109257377,4.5705847083,0.7836488478,-0.4410951451,0.2620035503,0.9201322624,0.4901567323,0.6770140568,0.9022339857,-0.1799358142,0.0485426375,-0.0796837087,0.5409838861,0.1812994956,0.2186304502,0.4596342107,1.1655248109,1.2115055569,1.0652810813,0.830988502,-0.2146126649,-0.1938956587,-0.1353755761,0.5556072396,2.5868046666,4.7487240296,5.3013613749,5.2680086757,4.7070477498,3.3123115954,1.1406701928,0.4982047386,1.3439896816,1.1629559609,-0.3801129501,0.7912183352,0.8090198043,-0.1589382425,0.4613340672,0.6945411044,1.3565318841,1.0373599125,1.3706116769,1.3800970145,0.9425796321,0.5129018749,0.0116210365,0.8351566331,0.0049237536,-0.2932183302,0.6367260994,0.8216776793,4.8187811457,4.1749406225,4.7656238392,4.2644549566,4.9538753405,3.2152637488,0.5593500465,0.0192792199,0.7686768961,1.6696555275,0.6083766731,1.7340872719,0.3177254256,1.3121169006,0.6082788092,0.7497357214,2.648542378,2.6811997369,2.6816950831,2.4696502863,3.116501175,1.9714109856,0.5989830705,0.1439258931,0.0612355224,-0.3258753377,-0.3266851932,0.5810628492,4.9544835876,4.2806809346,5.0418633315,4.5404390469,5.0449399925,1.9775992411,0.4592563769,0.691110826,0.380018813,1.4555956543,0.8839164256,0.8729659271,0.828442605,0.7606740983,0.850059913,2.4276471118,2.8373383835,4.4868745131,5.3090424891,4.6170773029,4.0383290596,4.5852277533,0.2827575186,-0.3226929174,-0.8671831162,0.2457161035,0.0156347607,0.8906670088,4.1437975874,5.262864872,4.2275444875,4.5039975685,5.0460507754,4.2083387937,0.4335083573,0.9133637733,4.1787884109,1.7917052882,0.1506927172,1.1130108407,0.534421081,0.810662794,2.0260404459,3.1001009956,5.039018906,4.3601090746,5.2777145615,5.0031634376,5.1744894746,5.3616100291,-0.2912474299,-0.1103868065,-0.4015692929,-0.4061197382,-0.4651673571,0.6039175718,4.6629099103,4.0555579998,4.7307803532,5.0141459201,4.8783601542,5.1312728515,0.3330774834,2.8251026404,-0.9091097388,2.1630061978,1.3052483503,0.4920591698,0.2051507577,0.662474964,2.961451531,5.3606063649,4.1652938448,4.5943664248,5.0550889095,4.6298725001,4.5173418067,1.7204916233,0.196949073,-0.9599232839,0.0978162105,-0.750699155,-0.1666044591,1.1657878583,1.9293541201,4.027775277,4.5754104297,4.4645107965,4.0117625866,4.7318310832,1.1980599314,1.9671236463,-1.1001974221,-1.0867764968,1.8341285503,0.7764517997,-0.0125465652,1.4434331019,3.1259101314,5.0764449721,4.41136512,4.0357640634,4.9077423195,4.4706104774,2.4528072729,-0.1079796786,0.1424691044,-0.2721196554,-0.9857261466,-0.0382500243,0.0611257046,0.93953587,1.8401828895,5.0408781451,4.381964472,4.7032273406,4.9292614323,4.2195068626,1.1902589908,-0.226017218,-0.7564548331,0.4509589814,0.8652277042,-0.3785998369,0.2707527672,2.4906702868,5.1210580839,4.09311683,4.9743933774,4.4534589111,4.2065099258,2.3604980858,1.0972544102,-0.2369577433,-0.0767794784,0.0113558151,-0.7360037399,0.2027026326,-0.1447932121,1.0624034721,1.3916992113,4.4861656773,4.7845640251,4.5205742913,4.309669123,5.2127391137,0.2439774178,0.1378707558,-4.1701528201,-0.176839041,-0.0185515799,-0.3933715643,-0.4297522069,5.0730744846,5.1671161133,5.2865907082,4.4452620103,5.2555006156,4.1709030442,2.2943289043,1.4335154283,-0.4314959876,-0.754206832,-0.9140207869,-1.0729568821,0.2861612021,-0.1338289677,1.1982133698,2.5585957494,5.090094548,3.9996069136,4.0227745245,4.805667894,4.6159226871,-0.3226135987,-2.0594586454,-13.0815210349,1.414080501,-4.4924919141,-4.4552757667,-0.4480200615,3.3414752454,4.0063001881,4.1427186006,4.5795982139,4.6733704494,4.4707505428,1.4917758839,-0.4444803893,-0.0109873741,0.0770799394,-0.3797486328,-0.4206681467,1.0338410377,0.9851465885,0.7989974171,1.7626425548,4.6832616358,5.1945057205,4.130860648,4.9289611013,4.4614065798,-0.7263117585,-1.9464835587,-13.2493549848,0.7656383709,-1.7485472117,-4.4653218351,-1.1346509164,2.7160578106,4.997045141,4.9158107561,5.1379821979,4.8492708328,1.6968813672,0.4301802481,-0.1921140055,-0.8007716955,-1.0142671303,-0.5106697196,1.0151733233,0.5658581686,0.5697654085,0.2735491575,1.0926052793,2.0331019026,2.27144139,4.2278145406,1.9655229726,0.6368371248,-0.7850068717,-2.0063134447,-0.0091505243,0.338715731,-0.8575103621,-4.7429672361,-1.6461213115,0.8279957772,2.636083895,4.5426955172,4.4843667087,4.3633334844,2.1258163341,0.5216652269,0.3233463377,-0.6857451763,-0.2117284074,-0.6164376677,0.3221468028,0.028595037,0.8286093248,0.3950678326,0.1808252643,0.9078194314,1.07939682,0.7894365178,0.0408479224,0.7460436666,-0.8327615749,-2.2383242978,-2.4050492959,-1.1647576252,-0.7888288643,-3.7174653753,-4.3950847426,0.3212322073,1.2194895451,1.040033024,4.8409577259,2.253953631,0.49047487,0.1185178257,-0.5789076264,-1.032514355,0.0059486556,-0.5475886798,0.9723539905,0.4607340524,0.4979813487,0.8879952647,0.4811552133,1.3463325602,0.8976332779,-0.4682886265,0.3531915723,-1.022298129,-1.3971345102,-4.4936082936,-1.0828806417,0.9689883224,0.7060717364,-5.0957891053,-5.1207727207,-0.1189921471,-0.0024769935,1.1642516319,2.1701269569,0.4715529485,1.3875584581,0.1549627273,-0.3301035572,-0.7248385305,0.1282211805,0.5734077725,0.3620858334,1.0879585518,0.5281066614,0.0575486074,0.5225829963,-0.2830278992,-0.3517424769,0.6159907858,-0.2617087599,-2.1155967678,-5.0106796484,-5.0670782445,0.4356745373,-1.3875978888,-13.7252315846,-12.8541782396,-4.0288261719,-0.317696908,-0.188478619,0.2623767216,0.8298135342,0.7050688171,1.6373932728,1.2474741779,0.8547713714,0.2725496255,0.5870594931,0.3568133402,1.5564590678,0.9035250081,0.539945347,1.3814003992,1.2277338624,0.7057006687,-0.471177678,-0.4609301212,-1.0623551583,-1.8200494829,-4.6739704256,0.0115122673,4.7420565446,-0.436384461,-4.5690955659,-3.980284063,-3.7940404326,-0.8908277933,0.1685264234,0.7931105595,0.7672530435,0.8900974005,1.5684476678,0.7534701148,0.6107693722,0.8779060354,0.7668639752,0.7413870113,0.9881392865,1.5920813281,2.5107856801,0.5995096813,0.345425444,0.0619413506,0.3194064138,-0.4401980841,-0.9847022263,-2.1123384163,-1.0892211742,-0.9277806346,4.9381443212,0.9523592535,0.6039937421,-4.5259935174,-5.0293798137,-1.9575466264,0.7415663062,0.6381500893,-0.198538551,1.2930891089,0.5111126198,1.3215462959,0.5246337216,2.4410164866,1.8512345518,1.5739766679,1.5768659924,2.5962188967,4.7201308601,3.0666859191,2.1210742917,0.7541929452,0.0152529782,-0.499725489,-0.64544632,0.1592743034,-0.078514007,-1.1511396626,0.1030875744,1.2237702699,0.8400881498,-0.1822793782,-1.1208203203,-0.454991303,0.2548125215,-0.165264052,-0.0787847819,-0.0079575474,0.1161274502,1.2307413491,1.6254401709,1.458452626,0.8506919981,1.4612565018,0.7752835189,0.8944701778,0.6851775685,0.1443600914,-0.5412758119,0.1944735781,0.356136236,0.63333966,-0.9198154945,-4.1099326171,-4.251731783,-4.4060950404,0.8367009194,1.2259881822,1.3124992669,-4.1258210431,-0.4467781508,0.7669455918,-0.6905314744,-0.6419627175,0.1648975654,-0.1433004177,0.5912457985,-0.1721210287,0.2060824952,-0.1680484164,-0.8582101339,-0.1315051658,-0.7018828401,-0.310322781,-1.0568693319,0.4920586771,-4.8378750701,-4.4092808306,-4.7860279501,-4.5789291482,-0.9771273558,0.7385770202,-0.8463797498,-4.1578641528,0.1881089063,0.5065250044,1.3553216803,0.8249503538,-4.9893707011,-0.0245203582,-0.4565202078,-0.4024558722,-0.2644934336,0.0710997561,0.6109730076,0.5005793377,-0.0847813616,-0.0733047444,0.1941554208,0.4035280708,0.6088229397,0.0895971335,-0.8246758931,0.1395962536,-0.3636425907,-4.9409288187,-4.5189300732,-0.5563538501,0.1597688928,-0.8002318873,0.2603753648,1.3976742424,0.2915439244,1.3074512582,0.4519469006,0.6213973874,0.4037731206,0.7618546124,0.5139607779,0.5731603674,-0.2963534981,-0.4347546822,0.0098462789,-0.0054111863,1.4836288968,1.12503777,0.7896051629,0.2394587558,1.3962944781,1.1437621659,1.7292131531,0.5642369914,-0.1729266524,-0.7201650628,-0.3090854844,-0.2268012285,0.6498293982,1.3137124268,1.0518069803,1.0829867011,0.5466912076,-0.0746920685,0.5719612011,0.5694674307,1.0383179829,1.1243883818,0.1781609032,0.5369674507,1.3047864319,0.8083042605,0.5476934771,0.8868460679,0.9968218208,0.0962967919,-0.6387156882,-1.3784044545,-38.7627445833,-38.9492574555,0.0300206664,0.9673395249,1.1012383937,1.1976603539,0.8312611735,0.9297270387,0.5303101703,0.0751482505,1.3133171884,0.1325759893,0.4857012316,0.7945637087,0.040287714,0.6475815642,0.594909664,0.9767337947,0.5350168019,0.5641906955,0.3785339113,-0.2249003931,-0.3082975087,-0.1429624478,0.3913381985,-0.4510764235,0.450959673,-0.2786614758,0.5716446562,0.7009681154,0.1390515432,-0.4332727094,0.2615377321,-0.4196507631,-0.5800544765,-0.2252604055,-0.1603578389,0.2769769627,1.2804032698,1.2097601704,0.6564251291,0.8206030419,0.9819493518,0.4868271269,-0.0207854633,-4.7448881861,-0.3837391054,-0.0658421177,0.0681402111,0.4169195974,0.4095323414,-0.0071601705,0.4440559093,0.6918268122,-0.5374399688,-0.3114572884,-0.360715692,0.6177886918,-0.3622911861,0.6958450047,-0.0704073868,-0.1879432589,-0.0946577905,-0.0214437118,0.1171442488,0.7589283717,-0.4971300708,-0.005950688,0.4873355214,0.2398432461,0.8795770913,1.172654614,-0.3785539207,-0.8865174318,-0.5097877941,-5.0882604025,-3.8302399287,-1.0633535185,-1.0068416402,-1.1199581683,-1.8827655177,-2.0365624177,-2.0046088213,-0.8533445549,-2.0325013814,-0.8125094718,-0.2877518979,-0.4396892358,-0.4853641342,0.122992352,-0.1368767741,0.4333617837,-0.3055822416,-0.0624196192,0.0637541515,-0.491308093,0.2712787763,0.2872792636,0.7888544004,-39.0715645891,0.3726121556,-5.1884899411,-13.2240999618,-7.718051315,-7.3262541467,-8.3724448075,-7.5336576285,-7.7576328262,-13.5838904018,-6.1072456896,-4.3918272752,-0.9092310901,-2.2172488995,-1.3786677294,-1.2773851227,-0.6612248552,-1.2554999364,-0.0556211275,0.2147005261,-0.4745332068,0.2346077428,-0.5894320508,-0.3396949567,-1.5309000449,-0.8880818589,-0.3749700643,0.9805677307,0.6632448382,-0.279602782,-13.7856961652,-13.29169662,-13.980023863,-12.8472692521,-13.8235686292,-13.4520150569,-8.0707411045,-7.8199714313,-6.8443682947,-0.7550519189,-0.8630942288,-0.4794294646,-0.3867351135,-0.3646485766,0.0367744077,-0.1398966784,-0.1074632847,-0.3503910379,-0.5468089042,-0.6621258545,-0.554346575,-1.9173421743,-0.9404384059,-1.3033874654,0.5586871138,0.3719439305,-38.136008952,1.9579585862,-13.5767283886,-13.5543648186,-14.1804837614,-12.8592655455,-12.9978455531,-13.4708553855,-1.8321654886,-0.386128571,-0.361197902,0.3394619919,0.3549890508,-0.2192963558,-0.2268410971,0.172112732,-0.8988068047,0.0840261438,-0.6902213628,0.0844782012,-0.2137086905,-0.2361567803,-0.426048457,-1.3725430266,-1.9202239446,-2.1084699495,-2.0117281046,5.3054463772,-0.2350601984,2.2020348819,0.7211268676,-0.1510907199,-0.2646671813,-0.119877532,-0.2667389881,-0.6384404996,0.4576504345,0.1558464683,0.5017851365,0.4259872553,0.6662355947,0.1291236312,-0.262838095,0.3950679192,-0.3643035597,0.6304626873,0.6721742889,0.3414490277,0.3550744891,-0.2137339655,0.0971406515,-2.0015869966,-2.0534879624,-0.9276637064,-0.842570848,1.7608941795,1.5781818565,5.2373547556,1.1933179277,1.4710945155,0.8110783464,0.8452410134,0.0626216613,0.8798608819,-0.0097976254,-0.4944546832,0.0036770766,0.1744155012,-0.2479027944,0.3289168997,0.510850716,-0.2840263505,0.7219947717,-0.5812889641,-0.314306096,0.5554000255,-0.3810468135,0.6375164925,-0.9770878588,-1.2010154088,-1.9699057764,-2.0216346047,-1.3069699105,4.3871240257,2.5013972751,5.0810879325,1.1903567186,1.127175351,0.4769975254,2.6801914396,0.5299574314,1.2480873178,1.9854212666,2.2138836695,1.679514942,0.9489112974,1.4543095652,0.7744933878,-0.4807855154,-0.2279169637,0.722355031,0.8300077396,0.1628155629,0.4420414191,0.5125018283,-0.10024686,0.1447467098,-0.6159860266,-2.1234305636,-1.4758021274,-0.3318192,5.3600941648,4.1875884411,4.4983131126,2.3792731,2.0824372671,2.916133312,2.8630474289,1.018337956,1.4011699095,2.0261144873,1.0993675483,1.6235949682,0.6931679573,-0.070249266,0.255104995,-0.406178919,0.5310131256,0.8763393694,2.0349216441,1.8268248739,0.1597698968,0.4823624758,-0.3456748744,0.5444752629,0.2231893856,-0.6746833891,-0.8278954909,-0.2223333899,4.495355467,4.8605037646,4.5163096119,2.5801367283,1.889479502,3.5385021688,1.5585732031,1.3540537088,1.9457293954,1.2194438819,0.2573792581,0.6381295301,-0.5077510017,0.7075286207,0.6540234539,0.1361580701,0.8115413063,1.138409726,2.1545341841,0.8903596937,1.1105081308,0.7232071484,-0.1154502882,-0.2104875235,-0.3830676824,0.0045841916,-0.6989133792,-0.3650784952,4.1805107264,4.039777786,5.1867171426,2.9997452686,1.857947616,1.4046190272,0.6220412534,1.1127682057,-0.2202673685,0.236061135,-0.2358556375,-0.4821535914,-0.879301622,0.175805538,0.2402465269,-0.6028110632,-0.4654705084,-0.0654096015,0.9190864965,1.1304653998,0.2999885993,0.0493984498,0.3391970808,-0.3740665344,-0.25753452,-0.2921086246,0.6823507915,0.3577619887,0.4384917603,4.5148445268,4.3156421464,1.885403497,0.8402436338,0.7088959973,-0.4300894444,-0.4874969708,0.188350639,0.4938250284,0.1901600385,-0.7247797077,-0.6575707595,-0.0346879232,-0.50602651,0.6351278355,0.7899980935,0.7971307074,1.1749651469,0.7801694348,0.3367936324,-0.0563862323,0.1361961198,-0.3697412703,-0.3857518744,0.4188143272,0.1231459465,-3.7842038543,-1.2780800072,0.3102589864,4.6779013949,3.0581990886,0.3389164154,-0.0284951278,0.465362539,0.1832390648,-0.3736000722,-0.1161331643,-0.3608792851,-1.0868097748,0.1039691887,-0.5429801254,0.4199825461,-0.4627570945,0.1622756059,0.2780053955,0.7039619412,-0.3036148005,0.571313457,-0.3875478307,0.2657221238,-0.486692452,-0.402012957,0.3681818955,-2.3884194659,-1.1671106467,-1.7786387775,-37.9636272942,-0.0237795722,-0.0654370555,-0.1112276388,-0.479366771,0.1464606718,-0.0990436316,-0.3242006107,0.1849327989,0.2791204984,-0.410877607,0.5348668444,0.2369714642,0.104644215,0.122390131,-0.2863352296,0.8374832643,-0.1159540546,-0.0180415035,-0.0000556201,-0.4351433376,0.1502214176,-0.3541104849,-0.0318362151,-0.1447000672,-13.1360459013,-39.0609642878,5.0722957919,-13.5452366159,-13.9024076733,-1.6611275955,-1.4075413605,-1.8036456414,0.5567190641,-0.4803146176,0.2424344849,-0.1994454007,0.2268254738,0.0951476317,0.5152371005,-0.3468753433,0.4257401569,1.289981007,1.1932364494,0.6648299411,0.1709043266,0.25097232,-2.0903696185,-1.0823745721,-0.6232424763,-0.9903218402,-1.4328832806,-1.3849102755,-9.7059711921,-38.0922643614,0.2394007229,-2.52317701,-39.1120732018,-13.2603312871,-4.2269640038,-1.4220897772,-2.018950868,-0.4142830863,-0.1910072819,0.4002013517,-0.4516566978,0.7103696961,0.4427251469,1.264527647,0.8951103085,1.557009316,-0.0939598829,-0.3210019385,-1.0960771534,-1.8312622301,-1.8211600785,-1.541201447,-1.4245408285,-1.7145540752,-3.0194914435,-9.2400212456,-8.6462686802,-7.0163557211,5.2677104767,-13.5337107582,-38.7548556834,-37.8857404076,-4.527836934,-4.3102841595,-5.0397474754,-0.5753287249,-0.2854946483,0.1645666415,-0.5160451628,-0.3399175069,0.012399956,0.8079586038,1.5533179467,0.8513573298,0.0635688607,-0.3089886897,-1.542576535,-1.2030954887,-0.9262609054,-4.2814304017,-5.1080638593,-3.9035081699,-1.0241204668,-9.060503302,-9.6598740554,0.1876902672,-0.0848896376,-0.7954768614,-38.1846119762,-38.8480277352,-14.1016965549,-4.7738962879,-3.8653816143,-4.2043373146,0.0721074867,-0.4388936268,-0.0033815123,0.6542054096,-0.3018155699,1.1299633531,0.1266541341,0.4040295403,0.370637246,-1.0171987542,-1.6439886901,-1.2577503763,-4.2778740458,-4.5104373436,-4.7562475591,-1.2570166775,-5.0005078847,-6.4454445147,-4.35277406,0.8957049464,0.9053604119,-13.8739576505,-38.4103118965,-38.6113803544,-13.3831585926,-13.5573826103,-4.2028705908,-4.5297219685,-1.1901951217,-0.6389137337,0.2255005689,-0.5732005861,-0.0590383725,0.5414111188,-0.5964304418,0.6686192565,-0.2693632682,-1.4474076545,-1.6468648961,-1.9632385896,-4.9200152729,-3.7679542744,-1.3350666649,-1.1364362486,-4.7049677531,-8.8307638623,-5.3543912602,0.5385950314,0.9769809789,-38.0722357982,-38.1694730616,-39.1309510013,-6.4953188744,-6.8290518555,-3.9328250823,-2.2277710393,-2.6753237195,-0.6706292425,-0.3807154079,0.3017110945,-0.2448406341,0.3507061233,-0.4400130626,0.2592548002,0.0075862309,-0.7127502522,-0.2480331113,0.0976115308,-0.5537096196,-1.6348163644,-1.5837067361,-1.6333912292,-0.8252608054,-6.2458973167,-1.1296753404,0.5726396909,0.1395074717,-13.7254546279,-38.5585619359,-38.3464135816,-6.2670223661,-5.3453805603,-6.2973238524,-1.805230672,-0.6568975538,0.3143409072,0.5155173908,-0.4681399607,0.0951415277,0.3411351099,0.3093465727,-0.5976494606,-0.1161532149,-0.5079569364,-0.4216261359,-0.4720481513,-0.3723161652,-1.5988331799,-1.4620790203,-1.0901046792,-1.7252791407,-1.426053374,0.3296177492,-0.1389338976,0.5653622938,0.4296834058,-38.0431984721,-37.9061589928,-6.6804907979,-3.1407700681,-0.8696058278,-0.6220425366,-0.3013073995,-0.1786406444,0.7352975583,0.4107185248,-0.6086493732,0.0322405372,0.7261188222,-0.2594909545,-0.49407278,-0.3908016165,-0.4122396108,0.0091626364,-0.5118590155,0.2146461839,-0.4795444311,-0.5952422578,-0.3961933099,0.0073241047,-0.1789514375,1.2112175574,0.8169734895,0.0156521383,-13.073514771,-13.8711032733,-13.4459399939,-1.6377771991,-0.016597415,0.1330911904,0.0392839982,0.1113945211,0.2447516358,0.4950575005,0.4490138472,1.1841269922,0.6095223677,1.4920362691,1.7130743041,0.9116199505,0.493912738,1.0935683741,0.2285675447,0.2766300341,0.1923222317,0.6396571442,-0.9087521334,-1.0604278639,-5.0948181876,0.8685867591,0.9129288657,0.2304965014,-12.9946390215,4.3259622536,5.3438021502,4.8920411797,4.7890443361,4.3430843083,4.1733367447,4.9509084728,4.0345491246,4.677761981,3.592088133,3.0120668925,3.0205965372,4.6015314496,5.0516350311,2.3527825033,2.3856767899,1.8622233027,0.6859187566,0.2363127142,0.7703540908,0.7995901507,1.071813013,-0.1260598843,-4.8427429932,0.5632023784,0.2344234808,1.240855558,0.1032148738,0.9554151932,5.36678754,5.0774967283,4.5291342914,5.2028178817,4.2834424171,4.382166169,4.3427493069,5.3337168597,4.1407695413,5.108403153,4.796252767,4.9800513803,3.597166125,1.6607013816,1.6277619225,2.2811183324,-0.1699704461,-0.0193265036,2.9295134663,1.7646526598,0.4094086826,4.4247304307,0.0006072909,0.4799029895,0.6409306786,0.91299536,0.8715334551,0.3492894158,4.1241058401,4.8651750086,4.7263173238,4.0076083235,5.0311858504,4.6736130341,4.7772956533,4.7472560166,4.3913053688,4.4137441051,4.4508533764,4.900163436,5.0528064009,4.4638676416,4.6138872827,5.394000334,2.4331693364,5.053510872,4.9431671033,5.0897365276,0.1523892274,0.5347182565,1.4023918085,0.2047313037,0.4587537214,1.1149573133,0.7528382042,0.8054854168,0.1020942143,0.8905657202,1.1813379041,0.3054003726,0.6265026637,0.6749068444,0.2029676625,0.6292950933,0.5520484455,2.5036960066,-0.4204442403,-38.469696908,-38.026629413,0.6716396206,0.8468959501,1.2886380931
